nep4 2 O H 
cutoff 6 4 2 2
n_max 9 7
basis_size 9 7
l_max 4 2 0
ANN 100 0
 -4.4140682e+00
 -4.6857724e+00
 -7.9090065e-01
  3.1424677e-01
 -8.9944720e-01
 -1.1668440e+00
 -4.3769613e-01
 -1.2726529e+00
 -8.5016626e-01
  1.0469795e+00
  1.4365596e+00
 -1.8023541e+00
  2.1560149e+00
  4.3517253e-01
  7.5368184e-01
  9.6256423e-01
 -4.9399104e+00
 -1.5361549e-01
  2.6457391e+00
  1.3418866e+00
  2.8912983e+00
  5.5993881e+00
  2.3243732e+00
  1.4737897e+00
  6.2625878e-02
 -1.0922391e+00
  1.2076981e+00
 -8.6394829e-01
  4.1602526e+00
 -5.1020175e-01
  2.3171494e+00
 -1.8460648e+00
 -2.0273297e+00
  1.1689813e+00
 -1.8012187e+00
  1.1576009e+00
 -4.0688279e-01
  1.1794155e+00
  6.3190472e-01
 -4.0416713e+00
  3.0709655e+00
  7.2639927e-02
 -6.4332224e-02
 -2.5991857e-01
 -2.7876897e+00
 -1.8873138e+00
 -4.7458115e-01
  2.1026613e-01
  1.8506341e+00
 -4.1313520e-01
 -1.7582374e+00
 -1.2189807e+00
  5.5057454e+00
 -5.0559957e-02
 -1.5553371e+00
  6.3659446e-03
  1.9114102e+00
  1.4713701e+00
  1.3005745e+00
  1.5823090e-01
  1.1741337e+00
  4.8961220e+00
 -7.1852750e-01
 -2.6661382e+00
 -4.5473805e-01
 -1.1089194e+00
 -1.0804921e+00
  1.7677099e-01
 -7.6938939e-01
 -1.9423989e+00
 -8.6674774e-01
  1.3025904e+00
  1.9943929e-01
 -4.4662893e-01
 -1.3158388e+00
 -1.8814521e+00
  6.5074915e-01
  2.4396446e+00
 -1.7037601e+00
  2.4777362e+00
  1.7140777e+00
 -3.4894845e+00
 -7.2732472e-01
 -5.6519527e-02
  5.7795799e-01
  2.2214534e+00
  9.9106592e-01
 -2.6568212e-02
  1.6324009e+00
 -2.0019608e+00
 -1.1319681e+00
 -2.7085803e+00
 -1.1565442e+00
 -5.2161098e-01
 -1.0123225e-01
 -3.2321763e-01
 -1.6442680e+00
 -9.3848449e-01
 -1.0601008e+00
 -4.7109354e-01
  4.3672228e-01
 -1.4782647e+00
  9.7721767e-01
  3.1648202e+00
  1.7354661e+00
  7.4987537e-01
  6.7044365e-01
  8.3208933e-02
 -1.3141973e+00
  8.2828271e-01
 -1.3079571e+00
  8.3636487e-01
  1.9659191e+00
  1.1477844e+00
  4.0212603e+00
  1.2258966e+00
  1.8121406e+00
  3.8668537e+00
 -4.6271358e+00
  1.2438976e+00
 -7.9825914e-01
  1.2035090e+00
  5.0989017e+00
 -1.7428536e+00
  1.3773143e-01
 -1.4891082e-01
 -4.2660351e+00
 -6.4114034e-01
  2.1416044e+00
  4.1011751e-01
  4.9683586e-02
  2.2945473e-02
 -2.3475354e+00
 -1.0418041e+00
 -1.5212388e+00
  1.4226017e+00
 -1.1750979e+00
  1.3060014e+00
  1.8158906e+00
 -1.6198528e+00
 -8.2560945e-01
 -1.3627361e-01
  4.9507794e+00
  8.5942382e-01
 -3.2142055e+00
  1.7222905e+00
  1.2368339e+00
  4.9902418e-01
  3.0472150e-01
 -1.9696592e+00
  2.1202266e+00
 -2.9251378e+00
 -2.1329701e+00
 -4.0573338e-01
  2.6100843e+00
 -1.2873454e+00
 -6.7719734e-01
 -1.3533117e+00
 -1.1991903e+00
 -4.6577644e-01
  1.6953056e+00
  4.9887097e-01
  1.7504400e+00
  7.7775091e-02
  5.1367670e-01
  3.1256673e-01
 -2.5332105e+00
 -4.0431583e-01
 -5.7656473e-01
 -1.0456059e+00
  1.6208640e+00
  6.6727036e-01
 -1.5143746e+00
  9.0876892e-02
  1.3023249e+00
  6.9776118e-01
 -1.4675003e+00
  2.0454347e+00
 -1.1390533e+00
 -1.4631354e+00
 -7.1651940e+00
  2.3281202e+00
 -3.1254819e-01
 -1.2761992e+00
 -5.6495711e-02
  9.2400599e-01
  3.8749156e+00
  1.0233819e+00
 -3.2907674e+00
  3.5003169e+00
 -7.5334263e-01
 -3.8574967e-01
  1.6434429e+00
 -3.0694668e+00
  1.6265552e+00
  8.6867452e-01
 -2.5891011e+00
  7.2711796e-01
 -1.9955322e-01
  4.1462782e-01
 -2.0611017e+00
 -7.4243236e-01
 -4.9557459e-01
  3.7263434e+00
 -2.6881719e+00
 -1.0556339e+00
 -8.8106024e-01
  2.3076599e+00
  1.9302951e+00
 -6.0003287e-01
  1.0211978e+00
  1.7755932e+00
 -5.7673299e-01
  1.7336742e+00
  4.3814176e-01
  2.6146662e+00
  1.4934446e-01
  7.3342830e-01
 -2.2585630e+00
 -1.3167723e+00
 -7.5250858e-01
 -7.2518837e-01
 -3.3295820e+00
  2.7987650e-01
  1.2323781e-01
  1.4423987e-01
  2.0469487e+00
 -1.4625978e+00
  1.4856796e+00
 -8.9515701e-02
 -1.1154442e+00
  1.2852750e+00
  4.2181144e+00
 -3.1183639e+00
 -2.0668049e+00
 -1.6475867e+00
 -8.5213792e-01
 -3.2958755e+00
 -3.2919779e+00
  9.9583067e-02
  1.0248047e+00
  1.6657678e+00
  3.8420477e+00
  1.4267955e+00
 -6.6107905e-01
  1.8348681e+00
 -2.0199826e+00
  5.4742199e-01
  8.6699808e-01
 -1.1114154e+00
  2.6104662e-01
  6.8249822e-02
 -4.4405177e-01
 -3.1135803e-01
 -2.1047525e+00
 -4.8176688e-01
  7.6175910e-01
  5.0795350e+00
  1.7048091e+00
 -9.4604373e-01
 -1.0604298e+00
  2.7889180e+00
 -9.1777837e-01
 -2.0083897e+00
 -2.3749131e-01
 -1.3300611e-01
  3.2263882e+00
 -5.5106569e-02
  8.5407192e-01
 -2.6540098e+00
 -6.3660787e-03
  1.7742354e+00
  5.8149296e-01
  2.3396688e+00
 -1.0955876e+00
  4.7242349e-01
 -7.0085025e-01
  9.3270350e-01
  1.1185893e+00
 -3.6745367e+00
  1.5283790e+00
  8.0734056e-01
 -7.8879535e-01
  2.1363468e+00
  4.9791698e+00
  1.2707458e+00
  1.3776760e+00
  2.0137303e+00
  2.9192815e+00
 -1.3460816e+00
 -2.3055530e+00
  7.3968226e-01
 -1.4238546e+00
  1.4877204e+00
 -2.6007540e+00
  2.1687171e+00
 -3.7250988e-02
 -4.7337982e-01
  1.7982334e+00
 -1.1825260e+00
  1.7658513e+00
 -9.9593706e-02
  3.1969128e+00
 -2.2285018e+00
  6.0061926e-01
 -3.2404008e+00
 -2.2771378e+00
 -1.6020200e+00
 -4.2735541e-01
  3.9838002e+00
 -8.3842748e-01
 -8.2168210e-01
 -8.4590000e-01
 -2.8691602e+00
  1.6452725e+00
  1.6194499e+00
 -9.0178561e-01
 -2.7543211e+00
 -4.6120635e-01
  2.9537010e+00
  1.6170464e-01
 -2.1047370e+00
 -1.1533294e+00
 -6.3253218e-01
  2.3766351e-01
 -3.9990917e-01
  5.3975396e+00
 -1.0704161e+00
 -2.4176049e-01
  1.9562761e-01
  7.0027798e-01
  1.4234319e+00
 -6.2747580e-01
  6.2933517e-01
 -1.0500189e+00
  4.1602468e+00
 -2.6489639e+00
  1.7844069e+00
 -3.6900465e+00
 -3.3718526e+00
 -2.8396061e-01
  1.0046542e+00
  2.8602658e-03
 -6.9042929e-02
  4.3568516e+00
  1.1114516e+00
  2.4526355e-01
  2.2398388e-01
 -4.1733589e+00
 -1.2104669e+00
 -3.6578321e-01
  1.3783475e+00
  1.2462819e+00
 -1.6672539e+00
 -1.4791799e+00
  1.8290499e+00
 -1.3470922e+00
  2.1476274e+00
 -5.7067508e-01
  3.1618795e+00
 -1.9194336e+00
  1.5222611e+00
  2.3128656e-01
  1.0583754e+00
  1.1624367e+00
 -3.8196635e+00
  1.2976197e+00
 -2.3715544e-01
  1.0659972e+00
  1.7834294e+00
 -2.2906468e+00
 -9.4820696e-01
 -3.4416449e+00
 -1.1824124e+00
  5.8542514e-01
  2.9146316e+00
  3.0103028e-01
  2.0322461e+00
  2.5496991e+00
 -2.5669076e+00
 -1.1251110e+00
  5.5014980e-01
  4.3931624e-01
  1.9202594e+00
 -8.5040796e-01
 -3.1929321e+00
 -1.2108405e+00
  1.8001722e+00
  1.5145190e+00
 -9.1845371e-02
 -4.3891929e-03
 -1.1940019e+00
  1.1081764e-01
  4.7909826e-01
 -4.3826044e-01
 -1.4589324e+00
  3.2048953e+00
  1.8509008e+00
  5.6970537e-01
  8.8225740e-01
  3.2859342e+00
  3.7899356e+00
  2.7832672e-01
  1.9719666e-02
 -1.0032491e-01
  3.6289525e-01
  3.3178079e+00
  2.8737161e+00
  3.5125709e+00
  1.9639997e+00
  2.1764419e+00
  4.1424431e-02
 -9.0769535e-01
 -1.0517777e+00
  1.0810111e+00
  6.3615978e-01
 -3.2645230e+00
  3.7486911e+00
  1.4895468e+00
  1.4699594e+00
 -1.0055691e+00
 -2.1097801e+00
  6.4524257e-01
 -1.1883664e+00
  2.8410518e+00
 -6.7599165e-01
  1.3740022e+00
  7.8978431e-01
  2.4052989e+00
  4.6970248e-01
  1.1851352e+00
  7.7700299e-01
 -5.8121145e-01
  7.1856028e-01
  9.9120080e-01
 -1.6547809e+00
  1.2258538e+00
 -3.1428833e+00
 -7.9150939e-01
  2.0966208e+00
  1.4203718e+00
  7.1740031e-01
 -3.8006535e+00
 -4.6890483e+00
 -5.3759277e-01
  5.6328952e-01
  2.7695217e+00
  2.5892665e+00
 -1.3654168e+00
  6.1380571e-01
 -3.4209595e+00
  1.8182026e+00
 -5.3364086e-01
  4.9118609e+00
 -1.9592749e+00
  1.2165850e-01
  1.4439261e+00
  9.8587549e-01
 -2.3156908e+00
  9.6204817e-01
 -3.3847386e-01
  2.4348428e+00
 -1.1853341e+00
  2.0786505e+00
  4.5008779e-02
 -1.4014266e+00
  1.1339793e+00
 -1.7712964e+00
  1.4820026e+00
  4.8957849e-01
 -2.9221669e-01
 -4.0388937e+00
  2.0976083e+00
  1.0514389e+00
  2.3720250e+00
  1.7206155e-02
 -1.2502578e+00
 -7.1917981e-01
  1.9487357e+00
  8.2148272e-01
 -2.0615203e+00
  2.3065953e+00
  5.0516534e-01
  7.6897806e-01
  4.7672623e-01
  2.3368740e+00
  4.2798474e-01
 -1.7972015e+00
  5.0005162e-01
  1.5313085e+00
  1.7724794e+00
  4.0091661e-01
 -3.1240051e+00
 -2.3535130e+00
 -3.3897683e-01
  3.3198115e-01
 -1.5192997e+00
 -1.7796458e+00
 -2.0282042e+00
 -3.9387169e-01
 -1.9438741e+00
 -1.0385054e+00
  1.9710351e+00
  1.1217903e+00
 -1.9002683e-01
 -2.9225810e+00
 -2.3827405e-01
 -2.2539113e+00
  1.3344214e+00
  2.1988535e+00
 -2.8395934e-02
  1.6194400e+00
  1.1962121e+00
  1.6661421e+00
 -9.4407201e-01
  4.3912128e-01
 -1.8332549e+00
  8.7516421e-01
 -3.5294473e-01
  1.3018290e+00
 -1.6687342e+00
 -5.6201530e-01
  1.6815079e+00
 -9.7579241e-02
 -3.5780387e+00
  3.7992821e+00
  2.7083436e-02
  3.0262411e+00
  1.3074183e+00
 -1.6970469e+00
  7.5623512e-01
  1.1591048e-01
  3.7593842e-02
  1.1038209e+00
  3.3351555e+00
 -4.3179473e-01
 -5.5329120e-01
  6.4973879e-01
 -2.6251693e+00
 -7.4147081e-01
  2.4381683e+00
 -1.8319032e+00
  7.3573422e-01
 -3.2726243e+00
 -2.7922606e+00
  3.7029743e-01
  1.9476833e+00
 -1.6563318e+00
  1.5983220e+00
  1.9208986e+00
 -4.5102397e-01
  1.0632653e+00
  3.8112977e+00
 -1.8122786e+00
  4.5693600e-01
  9.1829681e-01
 -5.3874030e+00
 -9.4553161e-01
  3.1590490e+00
  2.2012835e+00
 -2.6473784e-01
  7.5154954e-01
 -5.1986700e-01
  8.6859423e-01
  9.3614894e-01
  3.0416594e+00
 -2.7473097e+00
  1.3211519e-01
  3.5134655e-01
 -3.5654397e+00
  2.4550114e+00
 -2.0073886e-01
 -7.9909068e-01
  1.8925981e-01
 -2.5067403e+00
 -1.3618491e+00
  2.2728477e+00
 -7.5975835e-01
  4.2866239e-01
  6.2253606e-01
  3.2043144e-01
  9.9520308e-01
  3.9238555e+00
 -2.4766774e+00
  3.5856676e+00
 -2.2710209e+00
 -1.3872899e+00
  2.4071846e+00
 -2.4063110e-01
 -4.4081300e-01
  4.1317356e-01
 -9.9370164e-01
  1.5747504e+00
 -3.0522463e+00
  1.2191677e+00
 -1.2825330e+00
 -1.8467458e-01
 -1.5558013e+00
  2.2731367e-01
  4.4450855e+00
  1.7578687e-01
 -1.9182269e-01
  2.8374071e+00
  1.7537433e+00
 -4.0723743e+00
 -1.9260740e+00
 -1.1770773e+00
 -3.1021540e+00
  3.3987737e+00
 -2.2392106e+00
 -7.5846380e-01
  1.3443831e-01
  2.7862740e-01
 -2.6946840e-01
 -2.0889881e+00
  3.7419605e-01
 -1.8175850e-02
 -1.7005113e+00
  2.1108756e+00
  1.1025519e+00
  1.9424612e-02
 -3.3763820e-01
  1.4613858e+00
 -2.3466091e+00
 -2.5445592e+00
  5.9706974e-01
 -1.9679902e+00
  1.0685949e+00
 -8.0347352e-02
  1.6256227e+00
  2.6095440e+00
 -3.8014839e+00
  2.7661803e+00
  2.1708777e+00
  1.2234206e+00
 -1.1983153e+00
  4.1582808e-01
  1.0376710e+00
  6.6760087e-01
 -7.5225723e-01
 -5.4351431e-01
 -5.9189630e-01
  3.0636030e-01
  1.4734290e+00
  9.7720808e-01
  1.8083755e+00
  2.4296923e+00
 -1.3398104e+00
 -2.8657935e+00
 -2.7297807e+00
 -4.2484207e+00
 -3.1161458e+00
  1.1941394e+00
  2.8120446e+00
  1.4360965e+00
 -1.1085529e+00
  6.0827339e-01
  3.0070722e-01
 -1.5127318e+00
  7.6253116e-01
 -2.3991909e+00
 -1.1010580e+00
  1.1856240e+00
  3.4730325e+00
 -2.1307721e+00
  2.4698050e+00
 -1.0542800e+00
  1.3596614e-01
 -4.5063874e-01
  3.8794119e+00
  2.4928405e+00
  1.6232544e+00
 -4.3006992e+00
  1.0406505e-01
  2.5829952e+00
  1.6800338e+00
  8.9098978e-01
  2.5597787e+00
  9.5493340e-01
  1.5486444e+00
  1.6412201e+00
  2.1877589e+00
  2.1016562e+00
  1.6799824e-01
 -1.0056664e+00
 -2.9301136e+00
 -1.7179297e-01
 -2.4537740e+00
 -3.8463240e+00
 -1.6584541e+00
 -7.8848645e-02
  1.8996167e+00
 -2.4624074e+00
 -1.5257788e+00
 -2.1556799e+00
  1.8468859e+00
  1.5216215e+00
  2.7570683e-01
  1.1794108e+00
 -2.3477039e+00
  1.0600793e+00
 -1.0650023e+00
  2.0508070e-01
 -5.1269484e-01
  3.4204376e-01
  2.7321804e+00
 -2.1320319e+00
  2.1591270e+00
 -2.1491881e-01
 -1.1813804e+00
 -4.5905051e+00
 -4.0168743e+00
 -2.7120976e+00
  1.8664190e+00
 -5.4534173e-01
 -4.4619341e+00
  1.6520640e+00
 -1.6872953e+00
  2.4870378e-01
 -3.9086214e-01
  1.5347967e-01
  3.3506958e+00
  3.9046922e-01
 -6.8407351e-01
  6.3013548e-01
 -1.3018211e+00
  9.7987729e-01
 -5.9732550e-01
 -1.4999445e-01
 -3.0680873e+00
 -3.3878809e-01
  1.0969584e+00
 -2.6255915e+00
  1.1128583e+00
 -1.7289670e+00
 -1.3046790e+00
  2.2866759e-01
 -3.0973384e-01
  6.2899728e+00
 -4.1960084e-01
  2.4990327e+00
  1.9583066e-01
  4.2313248e-01
  2.7968900e+00
  1.3969711e+00
 -2.5680549e+00
  3.9897575e+00
 -1.2859248e+00
  3.8606876e-01
 -1.9998382e+00
  2.2886016e+00
 -1.3959689e+00
 -1.3404106e+00
 -1.5223392e+00
 -1.8972588e+00
  7.5553364e-01
 -1.1588936e+00
  2.2882707e-01
  2.1005626e+00
 -3.4100103e+00
 -3.8088912e-01
 -5.7175785e-01
  6.6873515e-01
  2.2453823e+00
 -2.2132936e+00
  3.3711648e+00
  2.8757350e+00
 -2.3494401e+00
  3.2173257e+00
 -3.7877008e-01
  1.0188755e+00
 -3.2942003e-01
  1.4490296e+00
 -9.0707082e-01
 -1.0049238e+00
  2.6171839e-01
 -3.9902347e-01
 -1.9747465e+00
  3.1483033e-01
 -2.1540530e+00
 -2.5016820e+00
  2.1910138e+00
  2.1004100e+00
 -8.4617007e-01
 -8.6616653e-01
  1.6845624e+00
 -1.3092887e+00
  6.7868268e-01
 -7.6786745e-01
 -1.3236586e+00
 -1.2395141e+00
  1.5998523e-01
 -6.8355179e-01
  1.8929198e+00
 -2.2354593e+00
 -7.1116811e-01
  2.2487702e+00
 -1.2356894e-01
 -1.5877783e+00
 -2.5230068e-01
  4.1775569e-01
 -4.3819032e+00
  2.3974006e+00
  3.0575001e-01
 -2.0777120e-01
 -1.0442619e+00
  5.5153191e-01
  5.2265787e-01
 -8.9522874e-01
 -1.1534092e+00
 -3.8358977e+00
  9.0226138e-01
  7.7455932e-01
  2.5610390e-01
  7.2518736e-01
  2.4038329e+00
  6.1529193e-02
 -1.7764407e+00
 -4.6648622e-01
 -1.1681874e-01
 -1.0195831e+00
  6.0664666e-01
 -1.1637534e+00
  2.2911952e+00
 -1.4082476e+00
  3.3432055e-01
  2.1106508e+00
  2.4318268e+00
  2.5745839e-01
  1.2049260e+00
  1.3493584e+00
 -2.3837836e+00
  2.3073918e-01
  1.3441040e-01
 -2.4055738e+00
  2.6274416e-01
  1.3260827e+00
  2.0296052e+00
 -4.6331856e-02
 -2.9365282e+00
  3.3309728e-01
 -6.9235727e-02
  4.8437943e+00
 -1.2899138e+00
 -4.4780797e-01
  2.1011186e+00
 -7.7256191e-01
  1.8233950e-01
 -1.2598462e+00
 -1.0568631e+00
  1.0340323e+00
 -9.2196989e-01
  1.4203011e+00
 -8.3600450e-01
 -2.2506011e+00
 -1.4230638e+00
 -1.2737890e+00
  1.0749724e+00
  4.3743771e-01
 -1.6083055e+00
  4.4139126e-01
 -6.6244513e-02
 -1.5776961e+00
 -1.2068360e+00
  1.6203312e+00
  2.5436077e+00
 -3.6410555e-02
 -2.0733321e+00
  4.0674772e+00
  1.4110538e+00
 -2.4092007e-01
  3.2835848e+00
 -1.1641243e+00
 -3.7717371e+00
  2.5679355e+00
  2.7316537e-01
 -3.2801316e+00
 -6.7205340e-01
  3.1416497e-01
  3.2140660e+00
  1.5951195e+00
  1.3447599e-01
 -1.7630790e+00
  1.7940835e+00
 -5.7144374e-01
 -1.9295083e+00
 -2.6248461e-01
 -5.0339550e-01
 -1.8097657e+00
 -7.1186250e-01
  1.8151826e+00
  1.7354221e+00
  6.2880987e-01
  1.1499379e+00
  8.3498400e-01
 -3.6546698e+00
  3.4472361e+00
  1.3924397e+00
 -2.5445127e-01
 -5.7959214e-02
 -3.7618566e+00
  3.3017097e+00
  2.1699798e+00
  6.1590838e-01
 -1.0498912e+00
 -8.9332235e-01
  2.3894343e+00
  2.8872504e+00
 -1.7217336e+00
 -3.9290339e-01
 -3.2606580e+00
 -1.7012753e+00
 -5.5294652e+00
  1.1009978e+00
 -4.0782113e+00
 -2.4437180e-01
  9.4820634e-02
  2.2578709e+00
 -1.0330499e+00
  3.8258798e+00
  3.5999471e-01
 -1.0946136e+00
  2.0611827e+00
  1.2554250e+00
 -1.2336323e-01
 -2.4296816e-01
 -3.7706617e-02
 -1.1877216e+00
 -1.2670235e-01
  2.1283355e+00
  2.1099906e+00
  7.4735761e-02
 -2.7121797e+00
  2.5443051e+00
 -1.9863679e+00
  6.7726678e-01
  1.0545876e+00
 -1.3062698e+00
  1.1921707e+00
  5.1345700e-01
 -1.4569781e+00
 -4.0529257e-01
 -1.8551587e-01
  2.1609476e+00
 -2.6269271e+00
  1.5401253e+00
 -4.2259833e-01
 -3.5825378e-01
  2.6345732e+00
  7.5323540e-01
  2.2931378e+00
 -8.9988098e-02
 -2.4983354e+00
 -4.8318556e-01
 -4.9106665e+00
 -1.1994720e-01
 -6.6999114e-01
  3.3717282e+00
  2.5504553e+00
 -2.6984820e-01
 -7.5988376e-01
  1.1309830e+00
 -2.1743774e+00
 -2.0935323e+00
  3.0031953e+00
 -1.7108039e+00
 -1.6130140e+00
 -2.8722301e+00
 -2.1002364e+00
 -2.0725689e+00
  1.4303964e+00
 -1.0527055e+00
  3.0441842e+00
 -2.5504141e+00
  1.7018574e+00
  9.2233986e-01
 -2.0691717e+00
  7.9402381e-01
  4.3869324e+00
 -6.6050357e-01
  1.1928759e+00
 -9.6955603e-01
  9.7167559e-02
 -5.7295126e-01
 -8.0719477e-01
  8.8136363e-01
  3.0550385e+00
 -6.1062920e-01
 -5.9201145e+00
  1.0350043e+00
 -5.0010881e+00
  3.9870012e-01
  2.8669047e+00
 -8.1563585e-02
  4.3805403e-01
 -1.1690711e+00
  3.2105711e+00
  2.0315428e+00
 -1.3963094e+00
  1.6457772e+00
 -1.3159144e-01
 -2.6805339e+00
  5.8744210e-01
  1.2871379e+00
  8.1232113e-01
 -8.6585784e-01
 -6.0142696e-01
  2.6375544e+00
  1.7997980e+00
  3.9299768e-01
  4.0148573e+00
  3.0036983e-01
  2.0559061e+00
 -3.0722231e-01
 -1.7928449e+00
  3.2415992e-01
 -2.8167512e+00
  9.6845053e-02
  4.8685253e-02
 -1.1229930e+00
  1.3507801e+00
 -3.2749283e-01
  1.1751037e-01
  6.5680671e-01
 -1.3343592e-01
  1.7427199e-01
  1.2962811e+00
 -3.0902069e+00
 -1.8800275e+00
  1.4535531e+00
 -3.5293536e+00
 -7.3689175e-01
 -2.1974807e+00
  1.2088737e+00
 -2.0484580e-01
  1.9641349e+00
 -2.4860616e+00
 -2.1459250e-01
  1.6327516e+00
  2.0661946e-01
  1.5962281e+00
 -2.8244286e+00
  1.1899348e+00
 -6.9501889e-01
  2.1204178e+00
 -8.8395023e-01
 -1.6809120e+00
 -1.0602175e+00
 -1.3994889e+00
  3.7740269e+00
 -5.5592954e-01
  5.6671935e-01
 -1.1600641e+00
  1.6115884e-01
  7.0335466e-01
 -1.4264598e+00
  2.9179287e+00
 -5.8839016e+00
 -3.8259268e-01
  3.8131803e-01
 -1.4686942e+00
 -6.8761688e-01
 -1.0715393e+00
  1.8489192e+00
 -1.9072372e-01
  3.7424091e-01
 -1.0971525e-01
  1.9374379e+00
  9.4185627e-01
 -1.5430435e+00
 -2.7111506e+00
  2.4458544e+00
  2.0617211e+00
 -8.5487348e-01
  3.0270883e-01
  2.0484002e+00
 -1.4232925e-01
 -9.0070564e-01
  6.9851267e-01
 -4.2762205e-01
 -3.0114818e-01
 -5.1746219e-01
 -1.0983973e+00
  2.7883301e+00
 -6.0454909e-02
  2.7626378e-02
 -7.4591380e-01
  2.3225713e+00
 -2.0190372e+00
  6.0766798e-02
 -1.3628997e+00
 -3.6757573e-02
 -8.0093867e-01
  2.2421198e+00
 -1.3986917e+00
 -1.6714718e+00
  6.0975814e-01
  1.2972620e+00
  1.5822283e+00
 -3.7677723e-01
  8.5870588e-01
  1.2701324e-01
 -1.7703849e+00
  3.3095539e+00
 -1.6214820e+00
 -1.1451634e+00
  3.6434484e+00
  1.3182938e-01
  1.3187802e+00
  1.2275332e+00
  7.1214885e-01
  1.2196413e+00
  4.6953878e-01
 -8.7583274e-01
 -2.2596945e-01
  1.0952166e+00
 -2.8176484e-01
 -1.4234618e+00
  1.2105104e-01
 -1.4889849e+00
 -9.5825154e-01
 -1.3850447e+00
  8.0862755e-01
  1.7993293e+00
  2.2339156e+00
 -1.0253471e+00
  3.0122620e-01
 -1.3288180e+00
  6.7872757e-01
 -6.3507998e-01
 -9.4765043e-01
 -3.9581770e-01
 -5.0759047e-02
 -3.4693995e+00
 -8.3074939e-01
  2.0738680e+00
  1.1277060e-01
 -1.6910418e+00
  4.8067778e-01
  7.8648347e-01
 -2.9655275e-01
  9.1415322e-01
 -3.6459033e+00
 -7.7892011e-01
 -2.7309048e+00
 -4.5222592e+00
  1.1435492e+00
  1.6465483e+00
 -1.0559045e-01
 -3.7356560e+00
 -5.3349239e-01
  1.0857887e+00
  9.1207260e-01
 -2.6670752e+00
 -2.9977436e+00
 -2.0925410e-01
 -8.5569119e-01
  1.6689135e-01
 -1.1705536e+00
  6.3614839e-01
 -3.8583400e+00
 -3.0804276e-01
 -5.5969089e-01
 -8.7917334e-01
 -2.0090680e-01
 -2.3980916e+00
  3.3661942e+00
  2.3055425e+00
 -1.4554344e+00
 -3.6984544e+00
 -1.0269743e+00
 -6.5858744e-02
 -2.6724725e+00
 -1.1951071e+00
 -7.5491321e-01
  5.8119974e+00
 -8.4410954e-01
 -2.0331097e+00
 -3.6461220e+00
 -1.3358684e+00
 -1.0134352e+00
 -1.0857285e+00
  2.9774656e+00
 -6.2508112e-01
  4.8169091e-01
 -1.8765538e+00
  3.6597183e-01
  1.9206694e+00
 -2.7718098e+00
 -9.2483467e-01
 -2.1537218e+00
  1.1158708e-01
  1.8193878e-01
  8.0469185e-01
 -4.6185949e-01
 -3.3780196e+00
  1.9586301e+00
 -4.2637887e+00
  1.0069593e+00
  3.2344725e+00
 -3.3332257e+00
  2.1039591e+00
 -1.8837270e+00
  1.2473046e+00
  2.2854605e+00
 -2.2164598e+00
 -1.1817194e+00
 -4.5631379e-01
  3.7025383e-01
 -3.2429502e+00
 -1.8805174e+00
 -2.6586149e+00
  1.5086262e+00
 -2.9033573e+00
 -1.6203563e+00
 -1.1306866e-01
  1.2275270e+00
 -2.0843444e+00
 -1.9099574e+00
 -2.4020760e+00
  4.9054861e-01
  2.3003817e+00
  1.8284546e-01
 -3.0638021e-03
 -1.4574029e+00
  1.7309719e+00
  8.1401199e-01
  4.0721568e-01
 -9.9075240e-01
  1.1904500e+00
 -2.0618336e+00
  7.5491583e-01
  1.4014279e+00
 -6.3816965e-01
 -2.0877181e-01
 -1.9535761e-01
 -1.9014536e-01
 -3.8063294e-01
  1.9880524e+00
  3.6539915e+00
  4.3669071e+00
 -2.7017136e+00
  1.8203647e+00
 -2.7690058e+00
  2.6492360e+00
  1.2638962e+00
 -2.7378356e+00
  3.2179132e+00
  1.5835509e+00
  1.7758102e+00
  1.7415155e-01
 -1.8697200e+00
 -1.0365560e+00
  5.7034403e-01
  4.9612236e+00
  1.6923693e+00
  9.0477157e-01
 -1.0175159e+00
 -2.2146628e+00
  6.9343531e-01
  6.2208956e-01
 -1.6873380e+00
 -1.9935066e-01
 -9.5463467e-01
  4.9890754e-01
  1.2738296e+00
  1.8231094e+00
 -2.4430449e+00
  9.8078710e-01
  1.0805225e+00
  1.5865152e+00
  1.1366270e+00
  6.4828444e-01
 -1.0831371e-01
 -5.8020836e-01
  4.5178838e+00
 -6.3111484e-01
 -9.1523206e-01
 -1.7825583e-01
  1.2094470e+00
 -2.1469841e+00
 -8.0493289e-01
  3.4718060e+00
  6.7258883e-01
  6.8773925e-01
 -3.4506145e-01
 -9.5248562e-01
  2.2893152e+00
  2.5511279e+00
 -8.7931156e-01
  1.0214498e+00
 -3.9446380e-02
  1.4100943e+00
  1.9104148e-01
 -8.7950242e-01
  3.6219592e+00
  2.8357949e+00
 -9.4429487e-01
 -3.8063425e-01
 -3.8086045e-01
  6.5082513e-02
 -2.3364785e+00
 -7.4263853e-01
 -2.8249279e-01
  1.5110523e-01
 -1.0297661e+00
  5.6569856e-01
 -3.0386147e+00
  3.5345063e+00
  1.6325831e+00
  7.6324749e-01
  1.3618361e+00
 -1.5291650e+00
  5.2079099e-01
  2.6462286e+00
 -5.9623283e-01
 -1.9798687e+00
  1.6201406e+00
 -2.8892560e+00
 -4.1868887e+00
  6.8860418e-01
 -1.2071604e+00
 -3.4458292e+00
 -9.7004217e-01
 -1.6717812e+00
  2.5278335e+00
  1.4394782e+00
  1.1110137e+00
  1.6140125e+00
  2.1501584e+00
 -2.9408236e+00
 -7.1562529e-01
 -2.5994128e-01
  6.9119173e-01
 -1.8008353e+00
 -3.0821827e-01
 -1.2701388e-01
 -2.5883923e+00
 -5.3486496e-01
 -2.7354200e+00
  1.1721134e+00
 -2.6439984e+00
 -9.5546347e-01
  1.8498580e+00
  1.1256300e+00
 -8.3872920e-01
 -1.4329494e+00
  4.8541941e-02
  3.4520051e+00
 -3.3286095e-01
 -1.4899945e+00
 -2.6839654e+00
  2.8853805e+00
  1.3254979e+00
 -1.2670794e+00
 -1.3666256e-01
 -7.9700124e-01
 -1.2019269e+00
  1.2805271e+00
 -3.1603524e-01
 -4.0548286e+00
  4.8943243e+00
 -8.2676220e-01
 -1.8301927e+00
 -9.6646959e-01
 -2.1327858e+00
  3.2126883e-01
  1.8460037e-02
  3.4320848e+00
 -5.6250834e-01
 -1.0022978e+00
  4.5993912e-01
  3.7072089e+00
  2.5782256e+00
 -9.0238410e-01
  1.6492650e-01
  1.9606322e+00
 -2.9187152e-01
  9.8043732e-02
  1.3146958e+00
 -3.8174622e+00
 -1.2368010e+00
 -2.7591660e+00
  2.0537777e+00
 -1.1470727e+00
  1.4859530e+00
 -3.2780590e+00
 -3.4193041e+00
  6.9212146e-02
 -2.6268940e+00
 -1.0397358e+00
 -1.1173310e+00
 -1.9926289e+00
  8.6259592e-01
  7.7018535e-01
  1.2317395e+00
 -2.9317316e-01
  2.9802737e+00
  9.4320220e-01
 -1.2445184e+00
  9.7256500e-01
  7.9372323e-01
  3.3128097e+00
  2.2083910e-01
 -8.2219958e-01
  3.8222783e+00
  8.3974046e-01
 -1.0000635e+00
 -3.3367102e+00
 -2.2710304e+00
  1.7757688e+00
 -3.8923025e+00
  1.7092580e+00
 -4.7131649e-01
  1.1924376e+00
  1.0958748e+00
  2.3750155e+00
 -2.3600760e+00
  2.7351794e-01
 -1.5575325e+00
  2.0400357e+00
  2.7839949e+00
 -1.4706081e+00
  3.3942013e+00
 -1.1634912e+00
 -3.7095914e+00
 -2.7565298e+00
  1.7009141e+00
 -4.0746236e+00
 -1.6699257e+00
 -2.3601568e+00
 -2.2595925e+00
  1.6911473e+00
 -1.7911371e+00
 -2.1901410e+00
  8.6903942e-01
  8.7717074e-01
 -2.1189578e+00
  7.0884305e-01
  3.2744839e+00
  2.1756940e-01
 -1.8115560e+00
 -4.0700564e-01
 -2.0458908e+00
 -2.1196904e+00
  9.7707939e-01
  2.4527554e-01
  1.6703970e+00
 -1.8745290e+00
  4.1627035e-01
 -6.6488820e-01
  2.6308024e+00
 -4.5495835e-01
  2.8249411e-02
  2.7052933e-01
 -6.6572410e-01
  3.1385279e-01
  3.5638409e+00
  2.8794706e-01
 -2.7882936e+00
 -1.1928313e+00
 -9.0067726e-01
  2.5896502e-01
 -1.7808005e+00
 -6.3166773e-01
  1.5485619e+00
  1.3430330e+00
 -3.8381165e-01
  1.2208344e+00
 -3.1084988e+00
 -1.0344516e+00
 -3.5367924e-01
  8.8376206e-01
  1.0303071e+00
 -1.0671675e+00
  4.6904257e-01
  6.3431273e+00
  6.5078443e-01
 -1.7274910e+00
  2.4231291e+00
 -8.5876024e-01
  7.0606786e-01
  1.5519682e-01
 -1.2006673e+00
  2.0346723e-03
  1.7782944e-01
 -1.1071594e+00
 -2.3931284e+00
 -4.0335970e+00
  2.2476590e-01
  6.9094217e-01
 -4.9257625e-02
 -8.9871585e-01
 -8.7390326e-02
 -1.5544589e+00
  1.1615734e+00
 -1.5393490e+00
 -1.7540719e-01
 -2.6024897e+00
  1.0093752e+00
 -1.0399245e+00
 -1.7276399e-01
 -2.8753381e+00
  1.7797735e+00
 -1.2180711e+00
 -7.5814784e-01
  2.2036853e+00
  6.3652003e-01
  1.2827610e+00
  3.6246943e+00
  7.9343355e-01
  1.1455758e+00
 -3.4399352e+00
  4.8004184e+00
 -2.1471140e+00
 -4.1285118e-01
 -3.0579736e+00
  1.5700443e+00
 -5.2809435e-01
 -8.1569916e-01
 -2.2558985e+00
 -1.8631035e+00
 -2.9329510e+00
  1.7508262e+00
  2.3906447e-01
  1.0619074e+00
 -1.3321133e-01
  1.3898696e+00
  5.0899333e-01
 -6.3535100e-01
  5.7786596e-01
  3.5841098e+00
 -1.2002276e+00
  3.9684361e-01
  1.9815372e-01
  6.6977960e-01
  2.6903069e+00
  1.6354202e+00
 -8.2891136e-01
 -8.3059770e-01
 -8.8023931e-01
  2.2053339e+00
  1.6156607e+00
 -2.4917379e-01
  1.3695328e+00
 -1.5922260e+00
 -2.3077610e+00
 -4.9561957e-01
 -3.8919115e+00
 -1.2632658e+00
  4.6158476e+00
  3.0735657e-01
  3.6718740e+00
  1.6589583e+00
 -2.5199463e+00
 -1.2218487e-01
 -1.5877248e+00
 -2.5584795e+00
  3.6085206e-01
 -1.5084233e+00
  7.4023587e-01
  3.6230966e-01
  5.5595535e-01
  1.2136633e+00
 -1.4623102e+00
  2.5096915e+00
 -2.4075165e+00
 -2.4104089e-02
  5.2346337e-01
  1.7112980e+00
  3.3985384e+00
 -1.7315818e+00
  1.1709814e+00
  2.2313783e+00
  3.6661185e-02
  1.9361552e+00
  7.6019436e-01
 -3.2449231e-01
  1.5561709e+00
  7.2429055e-01
 -6.7530608e-01
 -1.5767877e-01
  1.3116131e+00
 -1.7268534e+00
  2.0382755e+00
  1.0282013e+00
 -1.4304385e+00
  4.8424205e-01
 -1.1681865e+00
  3.1561885e+00
  2.7551534e+00
 -7.0321941e-01
 -4.2181739e-01
 -1.3925862e-01
 -4.5240366e-01
  5.1695120e-02
  1.6769531e+00
 -6.0642743e-01
  3.4740734e-01
 -2.9252234e+00
  4.2007247e-01
  9.5913507e-02
 -3.0083036e-01
 -1.2862372e-01
  5.2968436e-01
  8.2549685e-01
  2.5087088e-01
  1.6635138e-01
 -1.0286539e+00
  4.9481204e-01
 -1.0529783e-01
  2.7211387e+00
 -1.8762852e-01
  6.1943006e-02
  1.4528172e+00
  8.0956280e-01
 -1.5501672e+00
  1.4400203e+00
 -4.4803149e-01
 -2.7868924e-01
  2.0561275e+00
  2.1842024e+00
 -1.1243304e+00
 -3.3717519e-01
  1.7619481e+00
 -8.7956387e-01
 -1.2750195e+00
  4.6775129e-01
 -1.5675094e+00
  1.6735800e-01
  2.7552852e-01
  8.1084043e-01
  2.2451699e+00
 -2.8927124e+00
 -9.2439032e-01
 -1.3051494e+00
 -1.9669037e+00
 -6.1201584e-01
  5.0534880e-01
 -3.5228503e-01
  4.5163059e-01
 -3.7766669e-02
 -2.5909190e+00
  1.2300417e+00
  1.6452916e+00
  1.3629097e+00
  4.3139389e-01
  1.6567217e+00
 -5.2950138e-01
 -2.5326520e-01
  4.2108936e+00
 -1.8166394e+00
 -4.9834852e+00
 -2.5174224e+00
 -3.0889120e+00
 -6.0217845e-01
 -1.4002703e+00
  1.6656895e-01
 -1.7073800e-01
  2.6393464e+00
  1.4984326e+00
 -1.0741367e+00
  7.3809117e-02
  1.4502908e+00
 -2.7205386e+00
 -2.1806152e-01
 -3.0192819e+00
  2.4965508e+00
 -1.0978081e+00
 -1.2392068e+00
  3.3487865e-01
  1.8090215e+00
  2.0446508e+00
  3.4999030e+00
 -7.5893983e-02
  1.5639849e+00
 -5.1132183e+00
 -8.2498813e-01
  1.5150028e+00
 -2.5324793e+00
  1.6594261e+00
  1.0016431e+00
  2.0692687e+00
  1.9862535e+00
 -6.3433039e-01
 -2.8758445e+00
  5.8959782e-01
 -1.1504291e+00
  1.8389851e+00
  2.5595014e+00
 -8.7797660e-01
 -4.1390724e+00
  1.5487471e+00
 -3.8557717e-01
 -1.7793963e+00
  9.6343112e-01
  1.2235543e+00
 -1.6013101e+00
 -2.9798076e-01
  5.2224183e-01
  1.3651158e+00
 -1.5425357e+00
  2.7318084e+00
  4.4009590e+00
  2.2370124e+00
  5.0491005e-01
 -2.4331692e-01
  9.9585354e-03
 -2.2204995e+00
 -2.0605206e+00
 -7.4250847e-01
 -7.6283598e-01
 -5.1299411e-01
  8.1759399e-01
  1.4200265e+00
 -2.7210937e+00
 -1.4995536e+00
  2.9732218e-01
 -1.8604988e+00
 -5.0371909e-01
  1.4611412e+00
  5.2610171e-01
  1.9509101e+00
  1.5980698e+00
 -1.7435274e+00
 -5.8977163e-01
 -4.0152341e-01
 -3.5758061e+00
 -1.8917730e+00
  1.9554828e+00
  3.4187460e-01
  1.1635348e+00
 -9.0725869e-01
  2.6390409e+00
  1.2695949e+00
 -1.6546103e+00
 -5.4384065e+00
 -5.8091331e+00
 -4.1197720e-01
 -1.4003644e+00
  1.4974915e+00
  2.1486199e+00
 -5.4012465e-01
  1.7431041e+00
 -1.0648657e+00
  2.2447419e+00
  1.3499826e+00
  3.2152009e-01
  2.2564297e+00
  1.1253554e+00
 -1.1940119e-01
 -1.5450154e-01
  2.7597828e+00
 -1.4986277e+00
 -2.3574879e+00
  4.9724448e-01
  1.8605193e+00
 -1.3123180e+00
 -1.0422064e+00
  3.1667199e+00
  2.6345949e+00
 -1.7875601e+00
  2.6658432e+00
  5.1040745e-01
 -5.0384492e-01
 -1.4660933e+00
  2.2348239e+00
  1.3613665e+00
 -1.0107632e+00
  2.6548919e-01
  3.4285553e+00
  3.0414636e+00
  3.6164829e-01
 -1.3399642e+00
  9.9729544e-01
  2.8678355e+00
 -2.4492571e+00
 -4.0078931e+00
  1.5693113e+00
 -9.6282643e-01
 -1.1550212e+00
  1.1810356e+00
 -2.9086857e+00
 -1.9466311e-01
  4.6432453e-01
 -4.3785781e-01
 -1.9818237e-01
  3.7153091e+00
 -1.1380687e+00
  2.5698245e-01
 -2.0283312e-01
 -3.0773082e-01
  4.9003294e-01
 -1.7793525e+00
  8.6418682e-01
 -1.4285680e+00
  4.3399855e-01
 -2.2772385e-01
  8.8566792e-01
  6.7068487e-01
  2.6727161e+00
 -8.1796372e-01
 -1.6652184e+00
 -6.2680413e-04
 -9.3026735e-02
  5.1692337e-02
 -2.4767803e-01
 -6.7453134e-01
  7.5702769e-01
  4.6680781e-01
 -5.1543076e-02
  6.3532263e-01
  4.8615236e+00
 -1.7500714e+00
 -1.7904516e+00
  6.4640152e-01
 -4.3874216e+00
 -9.8055148e-01
 -9.8414868e-01
 -2.2432733e+00
 -1.4170802e+00
  5.8822465e-01
 -2.7724588e-01
  2.1159241e+00
 -1.9431145e+00
 -2.1414474e-01
 -1.1429241e+00
 -1.6567041e+00
 -7.2742507e-02
 -5.5019575e-01
 -1.0369709e+00
  1.4853573e+00
  8.6438191e-01
 -3.4118679e+00
  2.6512608e-01
 -1.0109924e+00
  2.3676965e+00
  1.2583992e+00
  2.3050205e-01
  5.8659178e-01
 -8.4313512e-01
  2.1528416e+00
 -4.0523186e+00
  9.8957056e-01
  1.5056009e+00
 -2.0757663e+00
 -8.2896632e-01
 -4.7945768e-01
  1.5090257e-01
 -3.3275259e-01
 -3.5486453e+00
  2.2193749e+00
 -1.4288152e+00
 -2.6955078e+00
  2.0568583e+00
 -5.9461243e-02
  4.6054971e-01
  7.3956150e-01
  2.5750132e+00
  2.0516574e+00
  1.1585177e+00
  1.8799961e-01
 -1.8149602e-01
 -4.4131023e-01
  4.8091540e-01
  1.3500322e+00
 -2.2811873e+00
  1.2609997e+00
 -1.1528419e+00
  3.2710686e-01
  1.6821049e+00
 -2.0223782e+00
  5.3376895e-01
 -4.4271767e-01
  1.9292228e+00
 -6.1519794e-02
  1.8536172e+00
  7.9997433e-03
 -5.4527786e-02
 -1.0714707e+00
  8.3087826e-01
 -5.2934899e+00
 -1.5220449e+00
 -5.6460279e-01
 -1.6843907e+00
 -9.9740362e-01
  1.2303303e+00
 -2.2708806e-01
  1.3536080e+00
  1.7013441e+00
  8.7858862e-01
 -2.8417307e-01
 -2.4462283e+00
 -1.4151021e+00
  1.8777360e+00
  2.7072861e+00
  3.7006173e+00
  1.0760956e+00
  1.0036608e+00
  1.3619509e-01
  3.4964409e+00
 -1.2297225e+00
  2.6160140e+00
  3.3700891e+00
  4.2341337e-01
  5.6702194e+00
 -1.4973216e-01
  1.9700123e+00
 -3.4693034e+00
  2.5825378e-02
 -1.3373696e+00
  1.9497689e+00
  3.5113411e+00
 -1.8418921e-02
 -1.2644278e-01
 -6.0796821e-01
 -1.9420509e+00
 -1.2361529e+00
 -8.4788877e-01
 -3.1341276e+00
 -1.5932782e-01
  1.8152876e+00
 -3.1139791e-01
  3.9360635e+00
  1.3286482e-01
 -3.6447151e+00
 -2.4669683e+00
  1.7708673e+00
 -2.2321339e+00
 -2.1154407e-01
  4.9462643e-01
 -3.2026489e+00
 -9.3829501e-01
  1.2106903e+00
  8.0367349e-02
  2.5991652e+00
 -1.7407309e+00
  2.5509107e+00
 -1.8545675e+00
  4.6469364e-02
 -3.4044073e+00
 -1.3538629e+00
  6.6570503e-01
 -2.2339091e+00
 -2.0583940e+00
  3.1764746e+00
 -2.0555990e+00
  2.5832160e+00
  1.2950755e+00
 -2.5239410e+00
  5.6215829e-01
  6.0565621e-01
 -2.7003992e+00
  1.3751939e-01
 -2.8345189e+00
  9.2137372e-01
  5.0116926e-01
  3.0952415e+00
  1.0982088e+00
  2.0390298e+00
 -1.2154090e+00
  2.1392250e+00
 -1.7911946e+00
 -4.5458016e-01
  2.8784027e+00
 -6.6486317e-01
 -3.1222417e+00
  3.4515172e-01
 -1.1805818e+00
  1.0588665e-01
 -3.2883172e+00
  2.0914478e+00
  1.5706396e+00
  2.0540674e-01
  2.5643785e+00
 -5.7691956e-01
 -1.9654559e+00
 -3.9933297e-01
 -2.9958987e+00
  2.7593999e+00
  1.4427444e+00
  3.6589411e-01
 -1.8681256e+00
  5.7693843e-02
 -2.4289722e+00
 -8.6313891e-01
  8.4721076e-01
  8.2354695e-02
 -1.2240276e+00
  9.7388875e-01
 -1.1653804e+00
 -2.1852478e-01
 -5.3513730e-01
  1.0755323e+00
 -1.5968510e+00
  2.7892053e-01
 -1.2152923e+00
 -1.3318373e+00
 -1.6340473e+00
  9.7706562e-01
 -1.3123572e+00
 -1.9232163e+00
  2.4248078e+00
 -2.5154114e+00
 -1.0233742e+00
  3.0604389e-01
 -2.6400542e-01
 -1.0060097e+00
  1.2024832e+00
  7.2586101e-01
  5.9561539e-01
 -1.1402367e+00
  6.3160606e-02
 -1.0648217e-01
  1.0694938e-01
  2.6014289e-01
 -1.5253670e+00
  3.7998395e+00
  4.7229564e-01
  1.0696297e+00
 -2.1503758e+00
  1.0500993e+00
 -1.6351800e+00
  9.8182225e-01
 -1.4412379e+00
 -8.6408719e-02
  2.8260286e+00
 -1.6171192e-01
 -8.7198187e-03
  1.7382193e+00
 -6.7629170e-01
 -3.7428632e-01
 -1.1569080e+00
 -4.6462220e-01
 -2.5293899e+00
  1.9993562e+00
 -1.3593416e+00
  4.3177828e-01
 -2.8570209e-02
 -5.4235780e-01
  4.6139210e-01
 -5.8327377e-01
 -8.4549022e-01
  1.5713587e+00
  1.9578956e-01
  2.3240299e+00
 -2.0441387e+00
  1.4488348e+00
  2.1217628e+00
 -9.8597252e-01
  4.8583760e+00
  2.1227302e-01
  7.4538475e-01
 -5.0670356e-01
 -5.2144772e-01
  1.2634352e+00
 -8.2602632e-01
  3.8087124e-01
 -2.3411396e-01
 -4.0671523e-03
  8.6082488e-01
 -9.1626912e-01
  1.1500839e+00
  2.1305118e+00
 -4.3553591e-01
 -1.0172669e+00
  1.8112470e+00
  9.9217904e-01
  1.0914643e+00
  2.3242459e-01
 -2.3785274e-01
 -2.7037752e+00
  2.1385296e-01
 -1.8890125e+00
  2.6613040e+00
 -9.7957426e-01
 -2.6826963e+00
 -5.0104767e-01
  8.1079358e-01
 -1.3084159e+00
 -1.7024877e+00
 -1.9670467e+00
 -1.4525902e+00
  2.6173222e+00
  3.4945295e+00
 -5.3087258e-01
  1.7085989e+00
  6.4891845e-01
 -5.2610713e-01
 -4.6672562e-01
  2.4443026e+00
 -1.5287944e+00
 -1.1251484e+00
 -2.7660587e+00
 -9.0813017e-01
  3.7776194e+00
 -2.4475126e+00
 -1.1058464e+00
  1.9114605e-01
 -4.1927705e+00
 -2.5976496e+00
  2.4427052e+00
  1.9175770e+00
 -1.5008016e+00
 -5.5635747e-02
  1.0259068e+00
 -2.2848279e+00
  9.8214276e-02
  1.0663333e+00
  2.1727026e+00
 -3.4947112e-01
 -1.6979908e+00
  3.0194499e+00
 -3.1457785e-01
  1.8020653e+00
 -3.5552959e+00
  2.1574528e+00
 -6.0435879e-01
  1.5472503e+00
 -3.8775101e-01
 -1.1322498e+00
 -5.1771939e-01
 -9.6562231e-01
  2.7367373e+00
 -5.6917012e-01
  2.0405259e+00
  1.3981991e+00
  3.4922823e-01
 -3.9035645e+00
  5.8279639e-01
  7.5255907e-01
  2.6400692e+00
 -1.4669576e+00
 -4.0993433e+00
 -2.6315603e+00
  8.0025148e-01
  3.5313439e+00
 -1.2281847e+00
  7.8194368e-01
  2.5088601e+00
  1.4180338e+00
 -7.3796040e-01
  2.2341785e+00
  2.9695582e+00
 -1.1533226e+00
 -7.3593497e-01
  9.2299843e-01
 -2.0530362e-01
 -5.8272731e-01
  3.1546286e-01
  7.1288872e-01
  1.1255070e+00
  3.9460781e-01
 -7.4297506e-01
 -1.0167544e+00
 -3.3921951e-01
  9.2096913e-01
 -4.0472693e+00
  3.5093818e+00
  1.8042587e+00
 -4.9540676e-02
 -2.6824310e+00
  1.1203182e+00
  2.6934667e+00
 -6.7044616e-02
 -1.4824004e+00
 -1.9630252e+00
 -3.0036757e+00
 -7.0849621e-01
  5.2516943e-01
 -4.6746979e+00
  2.0222545e+00
  1.8530285e+00
 -6.2266421e-01
 -3.6303291e-01
 -1.0498990e+00
  7.7753174e-01
 -1.6551608e-02
 -1.4744173e+00
  1.7080529e-01
 -8.8308567e-01
  1.4791012e+00
  1.3903832e+00
  2.0624034e+00
  6.7686874e-01
 -2.8415343e-01
  3.6075780e+00
 -4.0088046e-01
  1.7568376e+00
  1.0894949e+00
 -1.8598425e+00
  3.2129762e+00
  7.1211523e-01
  1.9201082e+00
 -2.0379343e+00
 -8.8648558e-01
  2.0322917e-02
 -3.4636714e+00
  3.2267553e-01
 -4.4906467e-01
 -1.5162866e+00
  2.1763847e+00
 -2.0820789e-01
 -4.9587622e-01
  2.0236506e+00
 -1.0232757e+00
  9.5412743e-01
  1.7990190e-01
  2.3672657e-01
  3.3494916e+00
  1.2403160e-01
 -2.6361446e+00
  1.4662672e+00
 -3.2018170e-01
 -1.4705864e-01
 -2.5058098e+00
  2.8705933e+00
 -5.8712775e-01
  3.7820384e-01
  4.3156260e-01
 -4.2321191e+00
  1.1671697e+00
 -1.6187991e-01
  4.2080393e-01
 -3.8777256e-01
  2.7011414e+00
 -3.5938580e+00
 -2.9111287e-01
  2.8714569e+00
 -2.1059792e+00
 -1.0219636e+00
 -2.6258466e-01
  2.5479347e-01
  1.5852165e+00
 -7.7320322e-02
 -5.7790715e-01
 -1.6896923e+00
  2.6208203e+00
 -4.0844330e-01
  1.3787683e+00
 -1.6736027e+00
  1.6979123e+00
 -9.0283602e-01
  3.4953017e+00
  3.7802844e+00
  3.2137136e+00
 -2.2745695e+00
  1.4145054e+00
  1.2418511e-01
  2.5149209e+00
  7.8992367e-01
  4.5549321e-01
 -5.9501654e-01
 -2.0707970e+00
 -9.8448050e-01
 -3.6764405e+00
 -1.3674717e+00
  2.2115491e-01
  1.2973228e+00
 -9.6819752e-01
 -1.9987437e+00
 -2.0021591e+00
  4.4790001e+00
  2.1881232e+00
 -1.9721593e+00
  1.0895352e-01
 -3.2002130e+00
  2.7549880e+00
  5.0962334e+00
  2.0263882e+00
  2.1445069e+00
  1.9255553e-01
 -6.0121208e-01
 -8.6541893e-03
 -2.1449003e-01
 -1.9731669e-02
 -2.4065020e+00
 -3.1335552e+00
  2.2190855e+00
  1.0530226e-02
  1.0665555e+00
 -2.0350246e+00
 -3.6905918e+00
  1.0055819e+00
  2.6125560e-02
  7.3995161e-01
 -3.6073464e-01
 -2.0574954e+00
 -9.0600687e-01
 -6.2133467e-01
  2.0195293e+00
  1.6389936e+00
 -1.7796403e-01
  1.0033809e+00
 -1.5357888e+00
 -1.3152547e+00
 -2.7737203e-01
  7.3795605e-01
 -2.6015630e+00
 -1.6442288e+00
 -2.0272586e+00
  6.9765246e-01
  1.3383633e+00
 -2.2697561e+00
 -8.9038424e-02
 -4.5004988e-01
 -1.4337590e+00
  2.4428012e+00
  1.6505405e+00
 -1.8929063e+00
 -1.8591684e+00
 -3.9391929e-01
 -1.1128005e-01
 -3.2435688e-01
  1.5743483e+00
  1.2484200e-01
  7.4613041e-01
 -1.5814339e+00
  1.2894350e+00
  7.0158198e-02
  6.9448990e-01
 -1.7605827e+00
 -1.4252675e+00
  1.0686305e+00
  1.1262219e+00
 -6.7451751e-01
 -7.3718719e-02
 -9.4492358e-01
 -5.3372116e+00
  3.3372885e-01
  8.9680284e-01
  2.9668498e+00
  2.2093737e+00
 -1.8191710e+00
  1.5359526e+00
 -2.1066756e+00
 -2.1139927e+00
 -1.1763541e+00
  3.4813888e-02
 -2.6023567e+00
  1.7192253e+00
 -1.2902348e-01
 -5.6808937e-01
 -7.9551965e-01
 -5.5397897e+00
  1.2302541e+00
  2.6813321e+00
 -3.0772740e-01
  2.6315510e+00
  4.4180470e+00
 -1.2445048e+00
  5.4652286e+00
 -1.2281766e+00
  9.2402381e-01
 -2.1692705e+00
 -1.4659467e+00
  2.9352939e+00
 -1.1862329e+00
 -3.2510316e+00
 -2.3267837e+00
 -5.8833847e+00
 -1.7832218e+00
 -1.8530005e+00
 -1.0156796e+00
 -1.5747529e-01
  6.9246203e-01
 -1.0784317e+00
  5.4935014e-01
 -2.5214646e+00
  2.2657106e+00
  9.1993898e-02
 -2.3488057e+00
  1.0287569e+00
 -2.5172861e+00
 -1.4786626e+00
 -6.7238098e-01
 -2.6643358e-02
  1.6693676e-01
  9.8550105e-01
 -5.0620008e+00
 -1.4087200e+00
 -1.5746495e-01
  1.4134566e+00
 -2.2387478e-01
 -3.5534613e+00
  1.8415745e+00
  1.0656718e+00
  2.5656612e+00
  1.4066947e+00
 -5.2859368e+00
 -9.5586136e-02
 -8.1752069e-02
 -8.9181769e-01
 -8.2507402e-01
 -1.2247816e+00
  5.7850355e-01
 -1.5718518e+00
 -1.6525217e+00
 -2.9144402e+00
  2.8127196e+00
 -3.4345335e-01
  3.6670258e+00
  1.2199020e+00
  1.7385942e+00
 -1.7701406e+00
  1.6485170e+00
 -1.4099807e-01
 -3.9116082e+00
  7.0660520e-01
  5.5374181e-01
  7.2849530e-01
  9.4865970e-02
 -2.3579609e+00
 -7.2490834e-02
  1.5759934e-01
  1.3241907e+00
  3.9173934e+00
  9.1694780e-02
  4.7936163e+00
  4.3435061e-01
 -4.4588077e-01
  2.3861096e+00
  1.2838731e+00
  2.0559993e+00
  2.7118809e+00
  3.9654040e-01
  1.9331950e+00
  8.8768587e-02
  2.1513510e+00
  3.8784063e+00
 -6.0672092e-01
 -2.5416851e-01
 -2.3851912e+00
  1.4799836e+00
 -2.6530430e+00
  5.6411093e-01
  6.9110870e-01
 -6.7997974e-01
 -6.3006610e-01
 -1.1896328e+00
 -1.0511920e+00
 -2.6309621e+00
  3.2393951e-02
  1.2427124e+00
  1.4278893e+00
 -3.6196051e+00
  2.6385291e+00
 -2.2682588e+00
  1.0113045e-01
  1.9761150e-01
  1.5013100e-01
 -3.0672738e-01
 -1.4514178e+00
  5.8685899e-01
  1.2210141e+00
  1.5229089e+00
  6.0417515e-01
 -1.7594711e+00
  4.8634109e+00
 -4.4900832e+00
  3.3866879e-01
 -2.1332481e+00
  1.2806445e+00
  1.5548825e+00
 -2.3175437e+00
  2.0392902e+00
  4.9806207e-01
 -1.6236470e+00
 -2.6168959e+00
 -1.0324805e+00
 -1.8485000e+00
  1.1437727e+00
  4.1666031e+00
  3.6585863e+00
  3.4934294e+00
 -5.8113283e-01
  8.5690570e-01
  3.3214369e-01
  1.3151417e+00
  4.1995040e-01
  2.9025334e-01
  1.4569799e+00
 -1.1803800e+00
  6.7755961e-01
  1.0312589e+00
 -1.3798391e+00
 -6.1400765e-01
 -1.5618616e-01
 -7.0394486e-01
 -3.4954612e+00
 -4.4106750e+00
  2.4042110e+00
 -1.2318403e+00
  2.8502409e+00
 -2.1832164e-01
  8.8947457e-01
  6.4468485e-01
 -1.3706412e+00
 -1.5965402e+00
  4.3621457e-01
  2.1136181e-02
  2.1305633e+00
 -2.7692487e+00
  2.2876325e+00
  7.3989809e-01
  1.0947320e-01
  1.3005662e+00
 -3.8523397e+00
 -1.1423678e+00
 -1.7329268e-01
  5.1622003e-02
  2.1458938e+00
 -9.5840389e-01
 -1.3155832e+00
  9.9220645e-01
 -1.4912136e+00
  3.6433125e-01
 -1.4971378e+00
  2.9046431e+00
  5.4473048e-01
 -2.7603364e+00
  4.2379320e-01
  6.4459038e-01
 -3.0736428e-02
 -9.3780708e-01
 -3.9864534e-01
 -2.8774434e-01
  3.6433309e-01
  1.3395239e+00
 -1.1609833e+00
 -6.0687840e-01
  5.5439508e-01
  2.3227966e+00
  2.2768734e-01
  2.0591850e+00
 -1.6346407e-01
  8.2407501e-03
 -1.3236024e+00
  3.1323874e+00
 -1.1623852e+00
  1.0485606e+00
  3.1841419e+00
  1.5411454e+00
  1.1396115e+00
 -2.2579079e+00
 -4.2829451e-01
  1.0629867e+00
 -3.7469196e-01
  9.6011001e-01
  1.0396613e+00
 -1.7952186e+00
 -5.2342749e-01
 -5.5490695e-02
  1.9255098e+00
  2.1154001e+00
 -3.4225923e-01
 -1.3616850e+00
 -1.9655095e-01
 -1.3305333e+00
  1.1226439e+00
 -9.7773051e-01
 -1.8664519e+00
  3.6296449e+00
 -1.3669114e+00
  2.3560016e+00
 -3.1215038e+00
 -1.7365347e+00
 -3.4654638e-01
  3.5222897e-01
 -2.0097065e+00
  7.2794199e-01
  1.4210942e+00
 -1.8096112e+00
 -1.1539361e+00
 -8.4056842e-01
 -3.5597509e-01
  2.5377645e+00
  5.3187037e-01
 -2.1594098e+00
  9.0526566e-02
  1.9362148e+00
 -3.0744292e-02
 -1.4912086e+00
 -1.4933475e+00
  1.5925518e+00
 -2.3049388e+00
 -4.3633902e-01
 -1.6257917e+00
  3.7215468e-01
  2.0415301e+00
 -3.1835706e+00
 -7.0769858e-01
 -2.5948300e+00
  4.3203635e+00
 -1.0116968e+00
  2.6645713e+00
 -3.9050083e+00
 -1.4350585e+00
  2.2056119e+00
 -1.4542251e+00
  1.6183062e+00
 -1.3877902e+00
 -6.1423051e-01
  1.8730086e+00
 -1.4660687e+00
 -1.7961032e+00
 -4.6675310e-01
  3.9809756e+00
  9.7773910e-01
 -7.0043659e-01
 -9.4957036e-01
  3.3850193e+00
  2.5230417e-01
 -1.9232042e+00
  2.3095965e+00
  1.2865585e+00
  4.3424436e-01
 -1.1518940e-01
  9.0902030e-01
 -8.4127456e-01
 -1.2901626e+00
 -9.4074517e-01
  2.4522477e-01
 -8.7011568e-02
 -1.6500307e+00
 -1.7170122e+00
  1.9095911e+00
 -1.1161406e+00
 -1.3449946e-01
  1.0013031e+00
  2.5926666e+00
  1.1992984e+00
 -3.7367201e+00
 -9.8874813e-01
  1.0536349e+00
  1.5289462e+00
  1.2525957e+00
  5.5899006e-01
  7.8592628e-01
 -2.1238349e-01
 -9.6767992e-03
 -5.0006092e-01
  1.9288930e+00
 -1.8736510e-02
 -1.5544873e+00
  6.7404294e-01
  2.4442272e+00
 -2.7985535e+00
  1.7815953e+00
  5.0801730e-01
  4.0346274e-01
  2.6141529e+00
 -9.1875434e-01
  2.2713637e+00
  5.3964460e-01
  1.4053072e-01
 -1.1004366e+00
  3.6951104e-01
 -1.3237213e+00
 -1.9490608e+00
  1.6050192e+00
 -2.9361401e+00
 -1.1568350e+00
 -7.4771297e-01
 -1.8253939e+00
  1.9661863e+00
 -2.0375150e-01
  2.7690569e-02
 -6.2048204e-02
  5.9163588e-01
  2.4829540e+00
  9.9185473e-01
 -1.6534542e+00
  1.7786709e+00
  1.4850655e+00
 -9.6538293e-01
 -3.9776597e+00
  3.0717592e+00
 -3.6818299e-01
 -1.0654691e+00
 -2.7431839e+00
 -1.1635168e+00
 -2.0289874e+00
 -3.1932197e+00
 -1.4420260e+00
  1.0397995e+00
  6.4288437e-01
 -1.2230900e-02
  1.1102455e+00
  2.4110115e+00
 -3.4115825e+00
 -5.0049317e-01
  4.8140270e-01
  2.4230909e+00
  2.1421230e+00
 -2.9419875e-01
 -9.3800139e-01
  8.3445293e-01
 -2.5929215e+00
 -5.4571956e-01
  2.7806563e+00
  3.2920253e-01
  1.9783605e+00
 -4.7678509e-01
 -3.4315220e-01
 -3.1046505e+00
  2.3271427e+00
 -5.0552523e-01
  1.7831467e+00
  2.0737879e+00
 -2.7550576e+00
 -2.4915908e-01
 -3.3271644e+00
  6.9788051e-01
 -1.8790550e+00
 -1.4790970e+00
 -2.8991992e+00
  2.3160629e+00
 -5.0642377e-01
 -6.8991846e-01
 -3.5064498e-01
 -4.4258577e-01
  1.2408206e+00
  1.6668114e-01
 -9.6291697e-01
  7.7277029e-01
  1.4748219e+00
  6.6449362e-01
 -1.4330094e-01
 -1.5749497e+00
  7.0329219e-01
 -9.4298232e-01
  2.1644022e+00
  1.6945972e+00
 -1.3466622e+00
  3.4730754e+00
 -1.8191613e-01
 -7.1266896e-01
 -4.3071014e-01
 -4.8946734e-03
  1.8769735e+00
 -9.2219311e-01
  1.4814482e+00
  2.8064868e-01
 -2.3369913e+00
  1.5375174e+00
 -5.8106971e-01
 -1.3571558e+00
  1.1836088e+00
  1.3989478e+00
  1.4878427e+00
  8.5674751e-01
  3.4757033e-01
 -1.3466728e+00
  6.8265355e-01
 -3.7257564e-01
  5.5404972e-02
 -2.9577595e-01
  1.1079370e+00
  3.2818620e+00
  1.9219906e+00
 -3.6124172e+00
  3.2751400e+00
 -3.6085278e-01
 -3.5538399e+00
  2.9457698e+00
 -1.4502741e+00
 -3.4242632e+00
  1.6822208e+00
  3.8727167e+00
 -4.5148203e-01
  4.9242631e-01
 -4.2001310e-01
 -4.1251259e+00
 -8.8178955e-02
  1.0005647e+00
 -3.5700145e-01
 -8.8001972e-01
  1.0824498e+00
  2.2842932e+00
 -7.7021593e-01
 -2.9915464e-01
  1.0210658e+00
 -2.2276857e+00
 -6.4840478e-01
  1.3011811e+00
 -2.0800660e+00
 -6.4463228e-01
 -4.5611495e-01
  1.0121877e+00
  1.3474813e+00
  2.4292176e+00
  9.2133307e-01
  1.3254082e+00
 -1.1337063e+00
 -1.6185144e+00
  1.8142357e+00
  8.6192471e-01
  1.2159880e+00
 -2.0743859e+00
 -8.9060813e-02
 -6.3860863e-01
  8.8668370e-01
 -8.4474766e-01
 -6.6004734e+00
 -2.0141790e+00
 -1.7417667e+00
  9.7019449e-02
  1.4080429e+00
 -1.0938505e+00
 -3.7595444e+00
 -9.4016588e-01
  8.7215179e-01
  3.2552586e+00
 -1.3905939e-01
 -5.2088115e-02
  1.7015568e+00
 -1.4872298e-02
 -5.5270457e+00
 -2.3333533e+00
  5.3967502e-02
 -4.2380050e-01
  4.3931106e-01
  1.3632123e-01
 -1.4183845e-01
  2.7596653e+00
 -3.6420619e+00
  3.8610961e+00
 -1.5762891e+00
  6.4663196e-01
 -2.4976118e-01
  9.9054968e-01
  9.8784614e-01
 -1.0834242e+00
 -2.2306341e-01
  1.2524098e+00
 -6.3307665e-02
 -1.2123944e+00
  1.5468627e-01
  2.2447138e+00
 -2.2757785e+00
  2.6408412e+00
  2.0321750e-03
  9.2205226e-02
  3.5098791e+00
  3.8705704e-01
  4.7780517e-01
  4.6939558e-01
 -3.1908102e+00
 -2.5944555e+00
  5.7262743e-01
 -1.3015264e+00
  3.9788725e+00
  7.3637950e-01
 -5.9739789e-03
 -2.3035183e+00
 -2.7535777e+00
 -1.8416198e+00
  4.6240080e-02
  1.8489717e+00
 -2.1790268e-01
 -7.7572048e-01
  1.1164042e+00
 -1.5864167e+00
 -2.0880342e+00
 -1.8017937e+00
 -3.9701092e-01
 -2.0096686e+00
  2.2344213e+00
 -4.9634087e-01
 -1.8225039e+00
 -2.2776740e+00
  3.6535507e-01
  1.3242168e-02
 -1.0709383e+00
 -2.9057723e-01
  2.1896281e+00
  3.0903924e+00
  1.4766307e+00
 -1.2619735e+00
 -1.1400497e+00
  4.6196265e+00
 -2.7874703e+00
 -4.4033793e-01
  1.3557758e+00
 -3.0758810e+00
  4.3495220e-01
  2.2565484e+00
  5.2945095e-01
  3.9905629e-01
  7.4420327e-01
 -1.7559575e+00
 -3.4594965e-01
  2.3397288e+00
  1.7831188e+00
  3.4942915e+00
  2.0505102e+00
 -1.1772293e+00
 -5.1077504e+00
  3.7946529e+00
  1.4899683e+00
  9.6255511e-01
 -1.3645998e+00
  1.2619022e+00
  1.4403973e+00
 -6.8718767e-01
 -2.4596043e+00
  3.9204257e+00
 -3.8615148e+00
  1.2575005e+00
  3.9183801e-01
 -3.1853279e-01
  2.3365444e-01
  2.7722983e+00
  2.2226212e+00
 -2.3010397e+00
 -1.5116491e+00
  5.0821039e-03
 -6.5964979e-01
 -2.2875206e+00
 -1.8743273e+00
  1.1526553e-01
  4.0737975e-01
  2.0420386e-02
  1.5219339e+00
  3.4283698e+00
 -4.9643862e-01
  1.4667847e+00
  1.2811066e+00
  8.9303839e-01
  1.8497417e+00
 -1.3127073e+00
  2.0681355e+00
  2.9566114e+00
 -5.7337010e-01
 -1.2646739e-01
 -4.0430227e-01
 -5.0703301e+00
  7.7492577e-01
 -1.0317096e+00
  2.6427367e-01
  1.2276261e-01
  1.5967836e+00
  6.7633653e-01
  1.5445319e+00
 -1.9671415e+00
 -4.4594920e-01
 -9.6462518e-01
  1.3100388e+00
  2.5729575e+00
  1.1664443e+00
 -3.7672040e-01
 -1.8430632e+00
  1.5502512e+00
  9.0813655e-01
  2.1043167e+00
  2.4758408e+00
  1.7077428e-01
 -1.1880229e+00
 -1.0407317e-01
 -1.8110925e-01
 -5.6163365e-01
 -5.6687194e-01
  2.2098427e+00
 -2.0780716e+00
  4.4199708e-01
 -4.5551304e-02
 -1.9791019e+00
  2.7090976e+00
 -6.5261763e-01
 -1.1431062e+00
 -7.1675843e-01
 -1.3571492e+00
 -5.7399452e-02
 -2.7591052e+00
 -4.0993509e-01
  1.1429307e+00
 -7.2037667e-01
 -2.4979765e+00
 -4.9456635e-01
  1.8893926e+00
  1.1752815e+00
 -2.6892359e+00
 -1.0947980e+00
 -3.8055453e+00
 -3.6086080e+00
  5.3103876e-01
 -3.1716473e-02
  2.7742648e+00
 -4.8728728e-01
 -8.4358233e-01
  7.5490189e-01
 -6.8726641e-01
 -6.8301708e-01
  3.6010444e-01
 -1.8550327e+00
 -1.3770403e+00
  5.2041543e-01
  9.4860744e-01
 -1.1638274e+00
  4.9408728e-01
  1.4348845e-01
 -1.2858491e+00
  3.4670404e-01
  2.6212800e-02
  3.3403462e-01
  1.5298134e-01
  3.7248176e-01
  1.1346469e-01
  2.4418480e+00
 -1.8488613e+00
 -3.7744546e+00
 -1.9051358e+00
 -1.2155354e+00
 -9.7689837e-01
  1.0489907e+00
  6.8272769e-01
  4.6153167e-01
 -3.1188253e-01
  1.7162658e+00
 -8.5989952e-01
 -6.4700127e-01
  1.0841568e+00
 -5.2744037e-01
  1.3034453e+00
 -1.1848716e+00
 -2.5357091e-01
 -1.3315669e-01
  1.6354160e+00
 -9.6682811e-01
  2.7583010e+00
  3.7551589e+00
 -2.0137835e+00
 -1.9911238e+00
 -2.4194781e-01
 -1.1861899e+00
 -2.7966552e+00
 -3.2070155e+00
  9.7714669e-01
 -5.1646566e-01
 -6.3501149e-02
 -3.3822722e+00
 -2.7800307e+00
 -1.4449215e+00
 -3.9959740e-02
  1.0508461e+00
  1.1222461e+00
 -2.1177342e+00
  2.3588485e-01
  7.5746888e-01
  5.5835819e-01
 -5.6972021e-01
 -2.0164320e+00
 -1.1482176e+00
 -4.8879659e-01
 -2.1244330e+00
  8.4390634e-01
  6.5283899e+00
  6.0349196e-01
 -3.5014212e+00
 -1.7414526e+00
 -1.4173255e+00
 -2.6741362e+00
 -1.1992685e+00
 -7.4163681e-01
  1.5127648e+00
 -3.0944743e+00
 -2.8548527e+00
  9.6189225e-01
  1.2240025e+00
  8.2642272e-02
 -1.9013715e+00
 -1.9950918e+00
 -1.1997435e-01
 -3.0750172e+00
  2.9797878e+00
  3.9797202e-01
 -1.6079304e-01
  6.2180799e-01
  4.6106061e-01
 -2.2180758e+00
 -8.9407273e-02
 -1.9375999e+00
  4.0586051e-01
  7.1172252e-02
 -2.5390265e+00
 -1.3722363e+00
 -4.5284834e+00
 -1.0545809e+00
  8.4287620e-01
  1.6799678e+00
 -1.7898911e+00
  5.2170649e-02
  1.6101791e+00
 -2.9687960e+00
  1.6167805e+00
 -1.2488021e+00
  4.7650999e-01
 -6.9652414e-01
 -1.4207102e-01
 -1.3842256e+00
 -8.1517154e-01
 -4.7825646e+00
  1.8478187e+00
 -2.1988211e+00
  2.7752192e+00
 -1.0027422e+00
  8.0357820e-02
  3.2707267e+00
 -4.3869683e-01
  7.9985328e-02
  1.8158014e+00
  2.6475015e+00
  6.8531179e-01
 -1.1994901e+00
  1.1712400e+00
 -9.1068023e-01
 -3.9797652e+00
  1.5738862e+00
 -1.4872925e-01
 -1.4212834e+00
  2.9655385e+00
  2.5501864e+00
  8.2646179e+00
  2.0517230e+00
  2.3343844e+00
 -2.5086195e+00
  1.2033887e+00
  9.3718439e-01
 -7.6330207e-02
 -4.8441574e-01
  4.8329349e+00
 -6.2813759e-01
  4.8037016e-01
  7.0089155e-01
 -2.4973984e+00
  5.6093943e-01
  1.1274518e+00
  1.3414106e+00
  3.4070296e+00
 -2.9530313e+00
  1.1097929e+00
 -2.3504081e+00
  7.0419490e-01
 -2.8632188e-01
 -1.2463813e+00
  1.5624861e+00
 -3.6136776e-01
 -2.1248360e+00
  4.2987445e-01
 -7.2238392e-01
 -1.3609736e+00
  1.1236920e+00
 -3.1908445e+00
  2.3306499e+00
 -2.8066416e+00
 -1.0597146e+00
 -2.1715355e+00
 -3.7757101e+00
 -1.9271003e+00
 -1.9772755e+00
 -4.8546090e+00
 -1.0099701e+00
  2.7959092e+00
 -3.8863009e-01
  2.8240564e+00
  6.6315544e-01
 -1.1676728e+00
 -5.9732199e-01
 -6.4194942e-01
  8.4287459e-01
  6.7788953e-01
 -1.1007304e-01
  1.7149063e+00
  2.0456402e+00
  1.1246282e+00
  2.2713876e+00
 -2.5469015e+00
 -1.4091799e-01
 -4.2020674e+00
  1.7313908e+00
 -7.2376132e-01
 -1.9502968e+00
 -2.9415140e+00
  9.8380387e-01
 -1.5733823e+00
 -3.7695494e-01
  2.7144911e+00
  1.4104818e+00
 -2.3303220e-01
  1.7398351e+00
  3.1522155e+00
  1.1700382e+00
 -3.6833037e-02
 -2.7596712e+00
 -2.1899331e-01
  3.6017344e+00
 -2.6450117e+00
  2.3559189e-01
 -6.2917989e-01
 -2.7481086e+00
 -1.3479904e+00
  4.7618753e-01
 -2.5045292e+00
  2.2048073e+00
  2.6105552e+00
 -3.1239519e+00
  1.0266153e+00
  5.6323785e-01
 -1.2841849e-01
  2.9712253e+00
 -4.9156637e+00
  2.1765812e-01
 -8.2271904e-02
 -8.9972235e-02
 -3.7975234e-01
 -1.2561706e+00
  7.0677364e-01
  1.1517302e+00
 -4.9982190e-01
 -2.6472616e-01
  2.2528563e-01
 -1.7239732e+00
 -4.7867429e-01
  1.7755992e+00
  2.1606133e+00
  1.8234888e+00
  1.0715666e+00
 -3.6978030e+00
 -2.5273278e+00
  2.0157637e-02
  2.9469957e+00
 -1.7183859e+00
  5.1904172e-01
  1.7144861e+00
 -1.6423180e+00
 -1.9041589e+00
  1.2334452e-02
  3.8983090e+00
  5.1970768e-01
  1.0854666e+00
 -6.1862695e-01
 -4.8776692e-01
 -2.9710165e-01
 -1.8849185e-01
  1.2708608e+00
  9.8932767e-01
  3.0659589e-01
 -3.2929940e+00
  3.6105388e-01
 -3.6090150e+00
 -3.9289397e-01
 -1.3918401e-01
 -2.3748930e+00
  4.5318151e+00
 -1.4387974e+00
 -1.4583076e+00
 -7.8716797e-01
  2.6891918e+00
 -8.0180705e-01
  1.0816126e+00
 -1.7272517e-01
 -9.5564306e-01
  1.3007115e+00
 -1.3858646e-01
  1.7853776e+00
 -5.6421417e-01
 -2.2452877e+00
  3.3263546e-01
  2.8317232e+00
 -7.6166070e-01
 -5.4167807e-02
  1.0613821e-01
  6.4432466e-01
  1.0369651e+00
 -2.5422208e+00
 -1.6198971e+00
  4.1731113e-01
 -1.5661242e+00
 -1.7466660e+00
 -5.2541113e-01
 -4.0355432e-01
 -1.3485515e+00
 -3.4027240e+00
 -2.2147191e+00
  1.2584788e-01
  1.9051149e+00
 -2.3850207e+00
 -1.0851610e+00
 -4.0883053e-02
  1.2014940e-01
  1.5775521e+00
  3.0805264e+00
 -3.3291769e+00
  3.4857221e+00
 -2.3641801e+00
  1.2012600e+00
 -7.3562860e-01
 -5.5733416e-02
  2.1167626e+00
 -2.9152122e+00
 -1.2232593e-01
  1.2179782e+00
  1.5370555e-02
 -7.2422928e-01
  9.7106770e-02
 -2.2629461e+00
 -9.7576851e-01
 -1.0818573e+00
  8.3559734e-01
  1.7845452e+00
 -1.2728606e+00
  9.6167207e-01
 -3.1605646e-01
  9.3609470e-01
  4.3122950e-01
 -1.4921154e-01
 -1.6602916e+00
 -1.2886022e+00
  6.8534470e-01
  1.4938062e+00
 -8.1352091e-01
 -1.3071128e+00
  3.5700083e+00
  1.0871507e+00
  1.1734172e-01
  4.4411048e-01
  4.6627745e-01
 -1.4027841e+00
  1.5549965e+00
  2.2224476e+00
 -2.4960542e-01
  1.8325044e+00
  2.0341389e+00
  4.9323192e-01
  4.1900635e+00
 -4.9018621e-01
 -1.5627518e+00
  8.9104193e-01
  9.7854686e-01
 -1.8938006e+00
  2.6922395e+00
 -9.3350333e-01
  5.3750062e+00
 -2.5934806e+00
 -1.0576794e+00
  6.7267567e-02
 -2.9957643e+00
  3.0973535e+00
 -3.1678060e-01
  1.1181365e+00
 -2.0237234e+00
 -1.0471182e+00
 -2.5427060e+00
  4.6756724e-01
  1.6276727e+00
 -3.8580213e+00
  1.4899901e+00
 -1.0795615e+00
  5.6735152e-01
  1.5479193e+00
  1.3343126e+00
 -6.9695997e-01
 -7.4684292e-01
  1.8607706e-01
 -2.0913193e+00
  7.2296119e-01
  1.6861680e+00
 -2.5178559e+00
  2.1794560e+00
  8.6303577e-02
  5.2997053e-01
 -1.8881686e+00
  2.7105308e+00
  1.6994840e+00
  5.3341353e-01
  3.4037819e+00
 -2.2916849e+00
  1.1359131e+00
 -9.1092241e-01
 -4.3823808e-01
  2.9248834e+00
 -8.3429688e-01
 -8.4577239e-01
  8.1157930e-02
  8.8482434e-01
  4.2099435e-02
  1.1997330e-01
 -6.8264186e-01
 -2.8129413e+00
 -7.9965574e-01
 -1.6344215e+00
  5.3530059e+00
  1.1763122e+00
  2.1231227e+00
  6.7030239e-01
 -2.1324036e+00
  5.1172608e-01
  1.7606725e+00
  7.9752487e-01
 -1.0404159e-01
  1.5123372e+00
 -1.3507955e+00
  5.2238691e-01
 -1.2814753e+00
  1.6402956e+00
 -3.9494047e-01
 -8.1644076e-01
  2.5457790e-01
 -1.0482374e+00
  1.6559658e+00
 -2.1978514e+00
 -4.0199199e-01
 -1.0487193e+00
 -8.2222247e-01
  1.4728568e+00
 -9.8336928e-02
  1.7981774e+00
  2.5174046e+00
 -1.5563982e+00
  3.3059113e+00
 -1.3097235e+00
  3.6052790e+00
  5.6809020e-01
  3.2179856e+00
  2.1627727e+00
 -1.4194789e+00
 -1.6541823e+00
  1.1922066e+00
 -3.2555583e+00
  1.1862420e+00
 -1.1045858e+00
  2.0397415e+00
  5.7959253e-01
  2.6530448e-01
  1.5104741e+00
  3.3984642e+00
  1.2159621e+00
  5.9933895e-01
 -2.3804638e+00
  3.7706628e-01
  1.4321431e+00
  2.2900175e-01
  1.3084731e+00
  1.9635038e+00
 -1.5128472e+00
 -2.9586479e-01
 -1.4037321e+00
  3.1305000e-02
 -9.0073788e-01
 -2.0574372e+00
 -4.9354169e-01
  3.7988670e+00
 -3.9867554e+00
  6.4903355e-01
 -2.8788497e+00
 -3.0369541e-01
 -1.6908754e+00
 -6.6849416e-01
 -2.4620717e+00
 -6.8256235e-01
 -2.8177485e-01
 -3.4676600e+00
 -5.1608253e-01
 -1.1570653e+00
  1.8179296e+00
 -1.4789431e+00
 -1.1113299e+00
  1.6491174e+00
 -1.4105006e+00
  8.5950655e-01
  1.2520788e+00
 -2.6195782e-01
 -1.8681113e+00
 -9.2319721e-01
  1.2347789e+00
 -4.3863754e+00
 -2.0466468e+00
 -6.9225484e-01
 -1.8832425e+00
 -1.1280037e+00
  4.8412845e-01
 -9.7413337e-01
 -2.1108527e+00
 -2.0943841e-01
  8.2661080e-01
  1.0757169e+00
 -3.4248953e+00
  2.2172282e+00
 -1.6615082e+00
  3.7847951e-01
 -2.7517435e-01
  1.7440565e+00
 -1.5692176e+00
 -4.3054237e+00
 -7.7109033e-01
 -1.4226087e+00
  1.9589552e+00
  2.2848918e+00
 -4.5150046e+00
  5.6967217e-01
 -1.8558124e+00
  1.0168695e+00
  1.5354836e-01
  2.9473503e+00
  1.1117786e+00
  2.8702478e+00
  2.5000867e-01
 -4.2135108e-01
  2.0856764e+00
 -3.8366014e-01
  1.4225118e-01
 -1.3512026e-01
 -4.5132974e-01
  1.6145728e+00
 -2.1420996e+00
 -1.8548304e+00
  1.2715622e+00
 -3.1841657e-01
 -2.9484873e+00
 -2.1063180e+00
  1.7693149e+00
  3.2230117e+00
  1.3266327e+00
 -3.1555984e+00
  1.0660323e+00
 -4.5944738e-01
  3.7730470e-01
 -1.9097707e+00
  1.8359923e+00
 -9.5217323e-01
 -1.0586771e+00
  3.2533901e+00
  2.8380138e-01
 -1.6264875e+00
 -1.9124027e+00
  2.5454645e+00
 -4.0986538e-01
 -3.7412143e+00
 -1.4804538e+00
 -1.0198437e+00
 -7.6835591e-01
 -3.2202956e-01
  1.3951305e+00
  1.3081384e-01
 -1.1274085e+00
  2.3135636e+00
  3.9986831e-01
  1.0421412e+00
 -2.7961440e+00
 -5.3135127e-01
 -3.3089656e-02
  9.9025053e-01
 -1.2653099e+00
 -1.1575274e+00
  1.7040486e-02
  9.8683655e-01
 -4.1169510e+00
 -1.2158419e+00
 -1.4727740e+00
 -3.4854972e+00
  2.8279433e-01
  3.3365571e+00
  1.3755841e+00
 -3.7798548e-01
  1.3886873e+00
 -1.6037922e+00
  8.4221500e-01
 -2.7872295e+00
 -3.1162915e+00
 -8.3329648e-01
  4.3209702e-01
  2.4785600e+00
 -2.0687988e+00
  2.8739398e+00
  1.7317898e+00
 -3.0778474e-01
  1.4701694e+00
  3.2759979e+00
  8.5337991e-01
 -1.0974463e+00
 -1.2077736e+00
 -2.1216108e-01
  2.2604005e+00
  7.6776654e-01
 -1.3247581e-01
  1.0445971e+00
 -1.7554374e+00
  5.6128913e-01
  2.4413347e+00
 -1.5422176e+00
  3.2377124e-01
  6.5609658e-01
  2.5998858e-01
 -1.2138431e+00
 -5.0800275e-02
 -1.6460987e+00
  7.3814076e-01
 -1.8997158e+00
  7.7892894e-01
 -2.3322795e-01
  1.8002756e+00
  8.2702503e-02
 -2.6527426e+00
 -9.2536658e-02
  1.3753718e-01
 -3.7296836e+00
  4.7976680e+00
  2.5258258e-01
 -9.6755368e-01
  9.9409556e-01
  1.9170030e+00
  5.0426596e-01
  2.1914710e-01
  3.1548951e+00
 -8.5732549e-01
 -6.7962486e-01
 -5.0093311e-01
  2.0258918e+00
 -2.9977388e+00
  4.0454328e-01
 -4.1968884e+00
 -4.4515648e-01
  7.4949038e-01
 -1.9162157e+00
 -5.1521492e-01
 -2.0794797e+00
 -1.8471742e+00
  1.2063030e+00
 -7.1104199e-02
 -2.2464483e+00
 -1.1506785e+00
  7.4597484e-01
  7.4827671e-01
  1.0020883e+00
  2.1910402e-01
  1.4775159e+00
 -1.6593256e+00
  1.0970044e+00
 -4.8050141e+00
 -1.0326872e+00
  6.0796762e-01
 -4.5662504e-01
 -7.6289892e-01
 -6.9145989e-01
  1.6755308e+00
  2.2417259e+00
  6.0287887e-01
  7.5680006e-01
  2.6261382e+00
 -1.6171168e-01
  9.5354307e-01
 -2.9821699e+00
  5.6563807e-01
  7.1164089e-01
  3.3953326e+00
 -5.2931476e+00
 -2.5389597e+00
 -3.0655146e+00
  4.9860217e-02
  4.9564606e-01
 -6.6642904e-01
  7.4914150e-02
  4.1985157e-01
  3.7695366e-01
 -2.0220451e+00
 -5.0157976e-01
 -9.8428398e-01
  1.1415666e+00
  1.3817898e+00
  3.3890727e+00
 -1.1737214e+00
 -1.1135010e+00
  1.4113882e-01
  2.8503180e+00
 -9.5360674e-02
 -2.4900963e+00
  9.8587835e-01
  2.3634260e+00
  1.7663909e+00
  4.2987728e-01
 -3.5266578e+00
 -1.3597514e-01
  2.7362669e+00
 -2.3458953e+00
 -2.0972556e-01
  2.4367578e-01
  1.9185669e+00
  3.2666194e+00
  7.4511832e-01
  2.5940037e+00
 -7.6833344e-01
 -1.8821681e+00
 -1.0224439e+00
  1.3086855e+00
 -3.8525575e-01
 -1.9882584e+00
  3.7218661e+00
 -4.0106672e-01
  8.3480871e-01
  1.8312793e+00
 -1.8637156e+00
  2.4463983e+00
 -3.5782513e-01
  6.8298006e-01
  2.0717132e+00
  1.4914263e+00
 -1.0268955e+00
 -4.9120298e-01
 -1.2999054e+00
  1.5100460e+00
 -3.0132291e-01
 -1.7946154e+00
  5.2860987e-01
  2.3048267e+00
  2.4120963e+00
 -1.2733006e+00
 -2.6814210e+00
  6.6188312e-01
  9.1367906e-01
 -3.0109301e+00
  5.3275079e-01
  3.4249038e-01
 -1.4770445e+00
  8.5592884e-01
  2.1709913e-01
  7.5312990e-01
 -6.5465832e-01
 -1.5964872e+00
  3.0458097e+00
 -5.2985048e+00
 -1.7882310e+00
  1.0865630e+00
  4.9660650e-01
 -9.6736753e-01
 -7.3043954e-01
 -1.7255399e+00
 -2.2211397e+00
 -1.2936710e-01
  2.4214108e+00
 -3.4390047e+00
 -9.3327248e-01
  3.0939090e-01
 -2.4545791e+00
  1.5342230e+00
  9.3778366e-01
  3.7603407e+00
 -7.9129928e-01
 -1.3061221e-01
  1.1078219e+00
  2.2277272e+00
 -3.8927084e-01
  9.4738632e-01
 -2.6502678e+00
 -2.2472525e-01
  4.1811500e+00
  9.5979631e-01
  2.2662532e-01
 -6.9377494e-01
 -1.7396817e+00
  5.5031242e+00
 -2.6712153e+00
 -2.7213738e+00
 -1.1014501e+00
 -1.7478960e+00
  5.1455557e-01
  2.0983016e+00
 -8.0704308e-01
 -4.6414170e+00
 -1.5206245e+00
  4.0084326e-01
  4.7299162e-02
 -5.1712942e-01
  2.3688545e+00
  3.2288351e+00
 -7.5583351e-01
  2.0259140e+00
 -1.1740196e+00
  5.1967697e+00
 -2.7746138e-01
 -1.6077256e+00
  1.5326886e+00
  2.0306525e+00
 -1.1774909e+00
 -2.6489076e-01
 -1.8974838e+00
  5.7039727e-02
 -5.4624313e-01
 -3.7550306e-01
  1.6943034e+00
 -1.9794558e+00
  2.1621841e-01
  5.7018465e-01
  1.4833957e-01
 -4.6351805e-01
 -3.8800917e+00
 -1.4797711e+00
 -3.5237670e-01
 -1.8208036e+00
 -3.0711381e+00
  1.2127383e+00
 -3.3786747e-01
 -1.4001155e+00
  9.4310212e-01
 -4.1027284e+00
 -1.0974709e+00
  2.5834622e+00
  1.1615688e+00
 -7.4098659e-01
 -1.4040937e-01
 -2.3634857e-01
 -3.0733275e-01
 -3.5651073e+00
 -9.7444552e-01
 -1.2078270e+00
  1.3116497e+00
  2.0557274e-01
  4.6352345e-01
  2.5526395e+00
 -1.0096413e+00
  2.0356522e+00
 -1.6728759e+00
  1.3012727e+00
 -9.8393840e-01
  6.3532513e-01
  9.1971505e-01
  2.0359900e+00
 -7.6553392e-01
 -5.8556122e-01
 -1.6583745e+00
  1.9700856e+00
  8.4433399e-02
 -9.5415300e-01
 -2.6509593e+00
  3.3141011e-01
  7.1542925e-01
  1.3727766e+00
 -9.8249072e-01
  2.5495579e+00
  1.8722516e-01
 -2.6910832e+00
  1.1254779e+00
  6.6504776e-01
 -8.6485893e-01
  4.2667374e-01
 -4.3415636e-02
 -2.2119629e+00
 -2.1776197e+00
  1.4512571e+00
  3.0447745e+00
 -4.4853565e-01
  2.5998116e+00
 -9.6221018e-01
  3.0511755e-01
 -7.2288483e-01
  1.8656846e+00
 -4.0038961e-01
  3.8231203e-01
 -2.2731922e+00
 -1.8474441e+00
  3.3338993e+00
 -2.0260677e+00
  6.8023932e-01
  8.6352330e-01
 -9.7108465e-01
 -1.6596098e+00
  3.1502071e-01
  1.2027977e+00
 -1.7110605e+00
  7.8206271e-01
  1.4686203e+00
 -1.3387059e+00
 -6.4698654e-01
  1.4645169e-02
  1.0130626e+00
  1.2923142e-01
 -1.0776607e+00
 -1.2398697e+00
 -3.3465188e+00
 -6.4418629e-02
  1.0599272e+00
 -3.1192753e-01
  5.2595407e-01
  1.7358845e-01
 -8.9397395e-01
  2.2815549e+00
  8.1951302e-01
 -2.2181785e+00
  2.1201396e+00
 -3.4766379e-01
 -2.0196705e+00
 -1.3985007e+00
  2.3177691e+00
  2.8468311e+00
  1.3312271e+00
  5.1964563e-01
  7.0571721e-01
  6.1901808e-01
 -2.8881249e-01
  1.0289204e+00
 -6.6901553e-01
  5.3120935e-01
  1.6873878e+00
 -4.2815762e+00
 -2.3462639e+00
 -1.1031892e+00
  4.0833454e+00
 -1.9032773e+00
 -2.9640371e-01
  8.2743669e-01
  1.1045434e-01
  1.4539330e+00
  8.1204730e-01
  8.1664377e-01
 -2.5375936e+00
 -3.0502732e+00
 -3.8543150e+00
  7.8213239e-01
  3.0603671e+00
  9.7481114e-01
  2.6379378e+00
  2.4091132e-01
 -1.2126781e+00
 -3.3419538e-01
 -7.3763806e-01
 -2.2673049e+00
  2.1264982e+00
  2.9031703e+00
 -2.4724598e+00
 -1.4246905e+00
  4.6828728e+00
 -9.3767601e-01
 -2.2474458e+00
 -8.6006057e-01
 -1.0044787e-01
  2.0093551e+00
 -1.6663884e+00
  7.7900499e-01
 -3.1446435e+00
 -2.6660748e+00
 -2.3759489e+00
  4.6306649e-01
  8.9717346e-01
  3.4697042e+00
 -9.0911067e-01
  2.3622936e-01
  3.1399140e+00
  1.9746461e+00
 -2.6582441e+00
 -1.9287589e+00
  7.8728050e-01
  1.8931061e-01
  1.7265639e+00
  8.0436343e-01
 -2.3971875e+00
  1.8823633e+00
 -4.8425213e-01
 -1.2067957e+00
  2.0948048e+00
 -7.0290846e-01
  1.7175426e-01
  5.7520187e-01
  3.7793317e+00
  1.5571531e+00
 -7.3476750e-01
 -2.8167629e+00
  1.4645858e+00
  1.3181080e+00
  6.1302495e-01
 -2.4485672e+00
 -3.7863511e-01
 -4.4015737e+00
  6.1918837e-01
  8.4304112e-01
 -8.3311874e-01
 -2.1103995e+00
 -2.4974811e+00
 -3.0409700e-01
  4.6053413e-01
 -3.8424566e+00
  1.3747011e-01
  3.8167806e+00
  1.4174489e+00
 -4.7834270e-02
  2.4676545e-02
  1.0997689e+00
  2.1964390e+00
  8.0550259e-01
  3.7642956e+00
 -1.5512487e+00
  5.9426546e-01
  2.6668656e+00
  1.9562984e+00
  2.5752077e+00
 -3.6525767e+00
 -1.9295362e+00
 -7.4035919e-01
 -5.9253246e-02
 -1.4704597e+00
  2.4919128e-01
 -6.7108795e-02
  2.7327397e+00
 -1.4656827e+00
  2.1945624e-01
 -2.5176497e+00
 -6.8435568e-01
  3.6404121e-01
 -6.8236208e-01
 -1.3268342e+00
 -2.0343165e+00
 -1.5923506e+00
 -1.6298599e+00
  9.9861705e-01
  1.0906513e+00
 -2.2034039e+00
  5.8994383e-01
  1.4416772e-01
 -1.2887126e-02
  3.4523341e-01
 -2.4266191e+00
  1.5693002e+00
 -2.2041881e+00
 -2.2608707e+00
 -8.5748535e-01
 -1.8477634e+00
 -3.5168242e+00
 -7.7686286e-01
  1.7845470e+00
 -9.0490174e-01
  4.7071898e-01
 -2.1046526e+00
 -4.3573049e-01
  3.9077559e+00
  2.1442182e+00
  2.4274082e+00
 -9.1126204e-01
  1.6345335e+00
  3.6276832e-02
  1.7816019e-01
  1.6078807e+00
  1.8994037e+00
  3.0065064e+00
 -1.3643727e+00
  1.2359749e+00
  6.0098015e-02
  3.2451046e+00
  9.8104966e-01
 -3.1964848e+00
  9.3248171e-01
 -1.1375029e+00
  2.2100708e+00
  1.2483244e+00
 -2.6815660e+00
  5.8075953e-01
 -2.8907678e-01
 -2.7940378e+00
 -2.0010445e+00
  2.3088047e-01
  1.2290376e+00
  1.5148911e-01
 -2.5171554e+00
 -2.0112247e+00
 -4.4304624e+00
 -1.4058356e-01
 -5.9807444e-01
  5.1719952e-01
 -7.4362093e-01
 -3.6427896e+00
  1.3313013e+00
  7.5754814e-02
  4.3034778e+00
 -1.2979410e+00
 -1.0800908e+00
  1.8258903e+00
  1.8114673e-01
 -1.5210580e+00
  1.1443101e+00
  1.8729827e+00
 -6.5196484e-01
 -8.4772718e-01
 -5.9356254e-01
  7.8696907e-01
 -3.2382488e+00
  2.3606575e+00
 -1.1527901e+00
  1.5483149e+00
  8.0417097e-01
 -2.7447586e+00
 -2.4441969e+00
 -1.2362472e+00
  6.3565886e-01
 -1.2415639e+00
 -1.3588710e+00
  3.8817556e+00
  1.1687916e-02
  2.2727361e+00
 -1.0786237e+00
 -3.2555528e+00
  2.0752019e-01
  1.6023604e+00
 -1.3937061e-01
  1.3220097e+00
 -3.7809920e+00
  4.7965506e-01
  4.5631900e-01
 -1.4439484e+00
  3.2274411e+00
  4.1619596e-01
 -1.9430038e+00
  1.7099574e-02
 -3.4106961e-01
 -1.0595933e+00
  2.3144150e-01
  4.3616545e-01
  2.1050782e+00
  9.5096964e-01
  8.8008845e-01
 -1.2525231e+00
 -2.3788724e+00
  2.4277196e+00
 -1.6848173e+00
 -5.4174232e-01
  1.3169376e+00
 -4.2492083e-01
  1.5433344e+00
  3.6354908e-01
 -1.6662465e+00
 -2.6306003e-01
 -1.0184213e+00
 -1.0822377e+00
 -9.6529037e-01
 -6.7257357e-01
 -1.2298147e-01
 -8.6084366e-01
 -6.4933538e-02
 -6.7128575e-01
 -1.7808330e+00
  2.3095498e+00
 -1.3485427e+00
  1.2570139e+00
  2.1322009e-01
 -1.2365623e+00
  4.0177646e+00
 -2.5556595e+00
  7.0354593e-01
  3.8651111e+00
 -4.0628500e+00
 -5.7854801e-01
 -1.8252732e+00
 -2.5493708e-01
  2.1543460e+00
 -6.9050387e-02
 -8.6991048e-01
 -2.3934819e-01
  1.6557256e+00
 -9.5557839e-01
  1.6776313e+00
  2.1359780e+00
 -5.9370053e-01
  2.4584384e+00
  1.5924869e+00
 -9.3606746e-01
 -3.4664124e-01
 -1.6105084e+00
  1.7171057e+00
  2.9151561e+00
  2.9615599e-01
 -1.4618311e+00
 -1.7374545e+00
  9.9234842e-03
 -4.5549688e-01
  3.6036756e+00
  1.3208023e+00
  2.5332946e-01
 -7.8366661e-01
  2.7175846e+00
 -1.8383325e+00
 -3.5792714e-01
 -1.0783361e+00
 -2.5767531e+00
 -4.8804887e-02
 -2.4740393e+00
 -3.5342139e-01
 -1.0412783e-01
 -6.4916950e-01
 -2.2986660e+00
 -7.7156705e-01
 -2.8237760e+00
  1.3815961e+00
  1.2872521e+00
  2.7712014e+00
 -8.0906278e-01
  1.8141663e+00
 -4.6496478e-01
  4.1869527e-01
  9.6454543e-01
 -8.0735050e-03
 -3.5270925e+00
  1.1660919e+00
  1.3562249e+00
  7.2690713e-01
 -3.6489983e+00
  6.2987316e-01
  1.2857039e+00
 -2.3568199e+00
 -1.4064173e+00
 -2.8585861e+00
  1.2176918e+00
  1.7635535e+00
  3.8498092e-01
 -2.4075277e+00
  1.2985983e+00
 -3.3901081e+00
  9.4338435e-01
 -1.1037610e+00
  1.1708088e-01
 -1.4602380e+00
  3.1947377e-01
 -3.5914305e-01
  3.9381659e-01
 -1.0944010e+00
 -1.2151127e+00
 -7.8061092e-01
  3.6656206e+00
 -2.4818881e+00
 -6.8779612e-01
 -4.4225998e+00
 -1.5184127e-01
 -5.7403553e-01
  2.3419313e-01
  4.1010551e+00
  2.3604863e+00
  1.5784780e+00
  9.9168015e-01
  2.8059106e+00
 -2.5180309e+00
 -1.3676640e+00
 -2.2793899e+00
  2.1595550e+00
  1.1566405e+00
 -5.5819473e+00
  4.9448004e+00
 -1.8719441e+00
 -1.5275110e-01
 -3.5179448e+00
  1.3723588e-01
 -1.2950530e+00
  4.2458600e-01
 -4.9282053e-01
  1.2120389e+00
 -3.6558731e+00
  1.7808778e+00
  1.8221332e-01
  2.5710692e+00
  6.6035932e-01
  3.3970900e+00
  4.7520161e-01
 -8.6298382e-01
  1.7573761e+00
 -1.0111970e+00
 -1.3963032e+00
 -6.8291128e-01
  2.1997857e+00
  3.6964653e+00
 -1.1280975e+00
  1.1641797e+00
  5.6904871e-02
  2.4114795e+00
 -3.5774162e-01
  1.1058525e+00
  1.9460583e+00
  1.1199013e+00
  4.8316770e+00
 -1.2550379e+00
  1.3110852e+00
 -1.1982423e+00
  6.2082481e-01
  1.8428987e+00
  1.3259650e+00
  1.1137078e+00
 -3.8369349e-03
 -3.3528235e+00
 -7.6145369e-01
  8.0288565e-01
 -3.1332841e+00
  7.5895149e-01
 -4.8687387e-01
 -1.9757087e+00
 -6.8447131e-01
  1.4760823e+00
 -5.8760577e-01
 -6.6638672e-01
 -2.0334830e+00
  8.8952696e-01
 -3.3214490e-03
 -1.9199171e+00
  1.2942051e+00
 -5.8515482e-02
 -2.9131980e+00
  1.0139664e+00
  1.1389680e+00
 -1.9662695e+00
  4.2240405e+00
  4.3085093e+00
 -8.9415944e-01
  1.0186701e-01
  3.7558229e+00
  1.7250267e+00
 -1.4908519e-01
  8.1364369e-01
  8.3022577e-01
 -1.0982682e+00
  1.0993017e+00
  1.4489986e+00
  4.4848317e-01
 -8.7506726e-02
  2.0033503e+00
  4.9119195e-01
 -1.3637701e-01
  1.0245864e+00
  2.5768337e-01
 -4.9072573e-01
 -1.3553551e+00
  1.0353947e+00
 -2.3382425e+00
  5.3251386e-01
  1.9593874e-01
  2.5634569e-01
  1.9184728e+00
 -1.0169255e+00
 -1.6166277e+00
  1.1832817e+00
 -5.4716337e-01
 -2.3728213e+00
 -1.0405648e+00
 -1.1158702e+00
  6.7925352e-01
 -1.0391276e+00
  1.3643900e-01
  1.4543951e+00
  1.1060432e+00
 -5.6784922e-01
  1.0779586e-01
 -5.6191808e-01
 -3.7608457e-01
  4.4035444e+00
  1.9693975e+00
  4.1980033e+00
 -2.9463122e+00
  1.6876742e+00
  7.4897420e-01
  2.0437803e+00
  1.3668317e+00
  1.5999217e+00
  1.7898395e+00
  8.0671602e-01
 -3.6631811e-02
 -3.5916219e+00
  1.3592205e+00
 -1.1834447e+00
 -3.7674335e-01
  9.8573409e-02
 -6.0529154e-02
  4.4894668e-01
 -4.6337157e-01
 -6.7018652e-03
  6.3549697e-01
 -2.8572598e+00
 -1.4939180e-01
  1.6900918e+00
 -1.8685938e+00
 -2.7352238e+00
 -1.9209751e+00
  1.2849756e+00
 -4.7415051e-01
 -1.0920008e+00
  1.3609153e+00
 -1.1614767e+00
  3.5241747e+00
 -2.7138135e+00
 -2.9479352e-01
  4.3340889e-01
 -8.8413447e-01
 -4.0948609e-01
 -1.5819305e+00
  1.3999341e+00
 -3.8393788e+00
  1.4909068e+00
 -5.8960795e-01
  1.9515880e+00
 -4.9356689e+00
 -1.1979879e+00
  7.1379787e-01
 -5.2778286e-01
 -9.0869921e-01
  1.0346767e+00
  1.1604869e+00
  1.8659091e+00
 -3.4548953e-02
  2.1443477e+00
 -6.9946134e-01
 -3.0521715e+00
 -3.8944271e+00
 -3.0693374e+00
  6.2629247e+00
  2.6083498e+00
 -2.4343703e+00
 -1.2588944e+00
  9.6124303e-01
 -9.8917615e-01
 -2.5405197e+00
  2.1724212e+00
  3.7796843e-01
 -1.0473312e+00
  7.3866165e-01
  1.1409853e-01
 -5.4563962e-02
  3.5744188e+00
 -3.5179883e-01
 -5.1094223e-02
 -3.4801263e-01
 -2.9332078e+00
 -8.2605368e-01
  2.2677405e-01
 -2.7861218e+00
  5.2747455e+00
  7.6583225e-01
 -6.3380599e-01
  1.9448788e+00
 -6.2001956e-01
  1.4396538e+00
 -6.9401205e-02
 -3.8051109e+00
 -2.1001663e+00
 -2.5252420e-02
  1.3482335e+00
 -5.0828564e-01
  3.0835299e+00
  2.2652975e-01
 -1.0153973e-01
 -2.1015379e+00
  2.2466104e+00
  5.0388581e-01
 -6.0497751e+00
 -1.8744425e+00
  9.6994555e-01
  1.9581246e+00
  1.5246501e+00
  9.3597627e-01
  1.1698331e+00
  3.0713263e+00
  3.1399481e+00
 -3.2213340e+00
  1.9221854e+00
  1.1132941e+00
 -3.4663775e+00
  5.1032688e-02
  2.1016371e+00
 -2.7971354e+00
 -5.1991618e-01
  1.0870922e-01
  3.4028473e+00
 -4.3206924e-01
 -5.0051636e-01
  4.9323659e+00
  2.3524554e+00
  1.9250393e-01
 -3.7846713e+00
  5.5975980e-01
  8.6757690e-01
 -4.4528013e-01
 -1.4541429e+00
 -4.3990021e+00
 -4.2496127e-01
 -1.9693854e+00
 -6.2120616e-01
 -1.3427022e+00
 -3.8115056e+00
  7.0038849e-01
 -2.1010567e-01
  1.2465898e+00
 -5.2930278e-01
  1.4305824e+00
 -1.6751857e+00
  2.4304140e-01
  2.0788317e+00
 -3.3319032e+00
 -1.1084651e+00
  2.0563528e-01
 -2.3856397e-01
 -1.9289967e+00
  1.4293149e+00
  2.2103231e+00
 -1.1237657e+00
 -4.0365400e+00
 -1.4554883e+00
  5.2568793e+00
 -1.3628919e+00
  1.9961277e+00
  3.7183595e+00
  2.2988400e+00
  9.6148860e-01
 -7.2363561e-01
 -3.6699655e+00
  4.5893488e+00
 -2.0017507e+00
 -1.6487892e+00
 -1.0638819e+00
 -1.2371613e+00
  1.8562926e+00
 -1.4534652e+00
 -3.1511209e+00
  1.1054002e+00
  2.2420151e+00
  1.8156566e-01
 -1.3071227e+00
  4.9934659e+00
  1.6139600e+00
 -2.1289105e+00
  1.4220253e+00
 -1.6059510e+00
 -2.8199022e+00
 -9.1642827e-02
 -2.2658851e+00
  1.1109071e+00
 -7.9948568e-01
  8.6908913e-01
  3.3568066e-01
  3.5153410e+00
  4.6010265e+00
 -3.9474268e+00
 -8.9975077e-01
  2.8442791e-01
  5.7548976e-01
 -1.1628768e+00
 -1.9896737e+00
 -1.0083046e+00
  3.0509527e+00
 -1.9000372e+00
  8.5315531e-01
 -2.6151221e+00
  3.3200600e+00
 -1.8441552e+00
 -1.3641116e-01
 -2.0749767e+00
 -1.4086738e+00
 -1.4281768e+00
  1.5557564e+00
 -2.3511648e+00
 -9.0024787e-01
 -1.8462105e-01
  3.7768016e+00
  1.9119085e+00
 -9.5984906e-01
  2.6659465e+00
  5.9418195e-01
  3.0371590e+00
  2.8859484e-01
 -1.6787534e+00
  2.7919314e+00
  1.7713414e+00
 -2.7371113e+00
 -2.6981614e+00
  2.0795913e+00
  6.5633577e-01
  2.5595970e+00
  6.1041939e-01
 -4.7196224e-01
 -3.1258950e+00
  5.4537541e-01
  1.3336834e+00
  2.7194037e+00
 -2.7866364e+00
  5.0582010e-01
  1.6130494e+00
 -1.7459818e+00
  1.2371993e+00
  5.2003703e+00
 -1.6513062e+00
 -4.7634661e-02
  1.6920433e+00
  1.0809861e+00
  1.0585122e+00
  1.6668278e+00
  3.8520560e+00
 -8.6480433e-01
 -2.2523315e-01
 -1.3873553e-01
 -2.0263481e-01
  4.2294865e+00
  1.8265473e+00
  6.5645838e-01
  7.2918266e-02
 -5.9717870e-01
 -6.3896012e-01
  5.4409611e-01
  2.2740617e-01
 -3.8214133e+00
  5.8534563e-01
 -1.8941981e-01
 -2.2583748e-01
  2.0048695e+00
 -2.5367124e+00
  4.6236968e-01
  1.1709633e+00
 -2.3808911e+00
  3.4685960e-01
 -1.1781788e+00
 -1.0725011e+00
  3.1474617e-01
  4.6877451e+00
 -2.2642291e+00
 -1.1692303e-01
 -1.7928680e+00
 -4.4282347e-01
  3.4383309e+00
 -1.4122057e+00
  4.2957169e-01
 -1.3503909e+00
 -1.7441113e-01
 -1.5880573e+00
  3.2097593e-01
  2.1297631e-01
 -9.7584027e-01
 -1.2632436e-01
  5.2961355e-01
  3.4332219e-01
  9.7966379e-01
 -2.8675110e+00
 -2.8520885e+00
  7.1707773e-01
  1.9456314e+00
  3.9335766e-01
 -2.3933494e+00
  2.6767664e+00
 -6.7179281e-01
 -3.8378060e-01
  3.1523948e+00
 -2.0679815e+00
 -9.4903761e-01
 -5.0275987e-01
  2.5226786e+00
 -7.9142255e-01
 -1.7162774e+00
 -3.0216945e-02
  2.4782185e-01
  1.7248715e+00
 -8.8435346e-01
 -1.3432691e-01
 -1.3028319e-01
  1.2815307e+00
 -1.8197225e+00
  2.2218676e-01
  1.7325660e+00
 -3.0658503e+00
 -5.5894985e+00
 -6.2523139e-01
 -6.0074091e-01
 -1.9601633e-01
 -3.6381979e+00
 -6.9696307e-01
 -7.7938730e-01
 -5.2897124e+00
  2.1726606e+00
  1.5463147e+00
  2.0964311e-01
 -4.1803637e+00
  1.8899186e+00
 -3.3874664e+00
 -7.9183109e-02
  6.2392706e-01
  1.7064798e+00
 -1.7985673e+00
 -2.2373803e+00
 -6.0701722e-01
  2.7228701e+00
  1.3265338e+00
 -1.5937756e+00
 -4.4402254e-01
 -9.7999865e-01
  1.4377324e-01
 -3.4459794e-01
 -9.9255121e-01
 -1.2173617e-01
 -1.0214432e+00
 -1.7667596e+00
 -4.1786633e+00
 -2.1637571e+00
  5.1728034e-01
  4.9396095e+00
 -6.1751235e-01
  1.4780345e+00
  9.5485723e-01
 -2.5670094e+00
  1.8378365e+00
 -4.2410719e-01
 -2.3161612e-01
 -2.3167751e+00
  2.1802387e+00
 -2.2482657e+00
 -2.9806421e+00
  1.6701565e+00
 -7.2488651e-02
  8.1202197e-01
  4.4183156e-01
 -1.1145508e+00
 -1.6679164e+00
  3.3765271e+00
 -4.1490835e-01
 -1.0313752e+00
 -9.3903005e-01
  2.2651143e-01
 -4.9625983e+00
 -2.3200402e+00
  7.7761239e-01
 -5.3658199e-01
 -2.0311985e+00
  1.0466502e+00
  1.7109761e-01
  4.0768912e-01
  2.6193004e+00
  1.4710659e+00
 -7.1656609e-01
  2.4270282e+00
  1.1961576e+00
  8.1921309e-01
 -2.4650309e+00
  9.4999027e-01
 -2.0766342e+00
 -4.2581290e-01
 -1.5817803e+00
 -1.1310025e-01
 -9.7826248e-01
  2.8362861e+00
  1.0201005e+00
 -1.7959245e+00
 -2.5028202e-01
 -1.2697551e+00
 -1.4452014e+00
 -1.7153497e+00
 -1.5529717e+00
 -7.2896332e-01
 -4.2934828e+00
  9.9217758e-02
 -8.7075633e-01
 -3.1680232e-01
  5.5326068e-01
 -4.0488064e-01
 -5.2030271e-01
 -1.2621258e+00
 -1.5077151e+00
 -9.3487275e-01
  2.0345225e+00
  3.1443632e-01
  9.8024303e-01
  1.1061258e+00
  6.9657195e-01
 -3.5655180e-01
  2.6595356e+00
  1.1672460e+00
  1.6795474e-01
  8.5193761e-02
 -1.0583674e+00
 -9.2159170e-01
 -2.0902494e-01
 -7.9762387e-01
 -3.3137336e+00
 -5.8072823e-01
 -1.9848786e-01
  3.0382912e+00
 -2.8118594e+00
  5.5376774e-01
 -2.3765974e-01
 -1.5841084e+00
 -1.9763972e+00
  1.0342370e+00
 -7.3028111e-01
  1.0386510e+00
 -6.8084997e-01
 -1.3883537e+00
  2.0627913e+00
  4.9778852e+00
 -1.4572223e+00
  4.9290937e-01
  1.0386556e-01
  2.2482357e+00
 -5.1866120e-01
 -2.6931601e+00
 -5.8652047e-02
  7.7937436e-01
  1.2204967e+00
 -2.6893244e+00
  7.3846108e-01
 -9.7924834e-01
 -1.1926532e+00
 -1.2466533e+00
  3.6052456e+00
  1.7005999e-02
  1.5162057e+00
 -1.7616953e+00
 -4.4880312e-02
 -3.2819369e-01
 -1.0500265e+00
 -2.8832116e+00
 -2.7357465e-01
 -1.0281085e+00
  4.7717209e+00
 -1.0222020e+00
  1.8524110e+00
 -1.2715907e+00
  2.8012124e-01
 -3.3420315e+00
  3.4195440e+00
 -4.1321918e-01
  3.3500323e+00
 -1.2225102e+00
 -2.9993145e+00
  4.1946163e+00
 -1.7905163e+00
 -6.2022197e-01
  2.1163833e-01
  2.1989579e+00
 -5.0250059e-01
  1.7735173e+00
 -2.6182091e+00
 -4.1974530e+00
 -3.0969024e+00
 -2.9950686e+00
 -8.0676311e-01
  2.2905097e+00
 -4.0986109e-01
 -1.5522809e+00
  1.8138365e-01
  1.4789872e+00
  3.7214719e-02
 -1.8724597e+00
 -2.5126503e+00
  3.8173401e+00
 -3.4246999e-01
 -1.3728558e+00
 -3.4746951e-01
 -1.0580363e-02
  2.6921799e+00
  4.0713811e-01
  9.6189821e-01
 -1.0775666e+00
  7.5104773e-01
  4.6954945e-01
  2.2421429e-01
 -5.9144741e-01
  4.7743747e-01
  1.3614331e+00
  2.9497137e+00
  1.1267719e+00
  1.3732228e+00
  1.4263020e+00
  3.1771259e+00
  1.7021776e+00
  2.3475313e+00
  2.1848569e+00
 -1.7812169e+00
 -1.8821886e+00
 -2.3900168e-01
  2.7252643e+00
  1.9178611e+00
 -2.4822733e+00
  3.3781710e-01
 -2.9262811e-01
 -4.8643905e-01
  3.0930047e+00
  3.5753682e+00
  1.2022976e+00
  7.9896879e-01
 -3.5019541e-01
  3.0239604e+00
 -4.1579304e+00
  4.9934104e-01
  1.9249016e+00
  6.5222120e-01
  2.2811196e+00
  6.0372764e-01
  4.9188199e+00
 -5.2897942e-01
 -3.1661768e+00
 -1.9309143e+00
 -1.7963797e+00
 -1.5478296e+00
  2.5238667e+00
 -3.7657013e+00
  1.5807205e-01
 -2.6469507e+00
  1.4031866e+00
  1.5254909e+00
  3.7232013e+00
  1.3040893e+00
  1.7195996e+00
  1.5274540e+00
 -3.4773633e+00
  4.6571591e-01
  1.1186082e+00
  2.7592754e-01
 -4.4719735e-01
 -1.0196445e+00
 -1.9455817e+00
  2.4282217e+00
 -2.9788330e+00
 -4.0411916e-01
  2.3151323e-01
  2.7783568e+00
  3.8112259e-01
  1.7524704e+00
  1.0618359e+00
  1.9133615e+00
 -1.8911992e+00
 -2.1442750e+00
 -1.9665909e+00
  6.3532192e-01
 -2.4858706e+00
  3.6604199e-01
  1.0777225e+00
  1.3017863e+00
  1.0860600e+00
  1.3654045e+00
  1.7784618e+00
  1.2691019e+00
 -5.5699033e-01
  6.4474750e-01
  2.9543161e+00
  2.4726632e+00
 -2.1664612e+00
 -2.3206644e+00
  9.4299573e-01
  1.0239887e+00
 -3.1343141e-01
  1.4866940e+00
  1.5753725e+00
 -3.3556277e-01
 -1.9571876e-02
  2.7310030e+00
  3.3326161e-01
 -7.1607530e-01
  2.0705676e+00
  1.8305174e+00
 -6.3347864e-01
  3.4571342e+00
 -1.3328165e+00
  9.6670175e-01
 -1.3094772e-01
  8.5123223e-01
 -1.8519188e+00
 -4.3035879e+00
  2.9272085e-01
 -6.9218504e-01
  1.4355723e+00
  2.6927860e+00
 -9.8204088e-01
 -8.2700145e-01
 -9.2307007e-01
 -1.3456776e+00
 -4.6489749e+00
  1.7525197e+00
 -2.3896751e+00
  2.2061439e-01
  1.0632355e+00
 -1.1722759e-01
  1.3493563e+00
 -8.9998430e-01
  1.1317928e+00
 -7.1224284e-01
  2.1983109e-01
  4.4104028e-02
  1.0224329e+00
  2.5603650e+00
 -4.0775612e-01
 -8.1718975e-01
  2.2216837e+00
 -1.0888743e+00
 -4.0445108e+00
  1.5177603e+00
 -5.0816238e-01
 -1.3567279e-01
  4.4574216e-02
  8.9123285e-01
 -5.1757693e-01
  1.5937335e+00
  6.3723427e-01
 -9.8695505e-01
  2.1344461e+00
 -1.5496548e+00
  1.0719004e+00
 -1.8390311e+00
  1.5670774e+00
 -7.4325114e-01
  1.4628968e+00
 -1.6361012e+00
 -2.6588169e-01
 -5.2679653e+00
 -2.5441667e-01
  4.1707969e+00
  3.1390686e+00
  3.8508305e-01
  4.5961097e-01
 -3.6102734e+00
  2.8736323e-01
  4.5481682e+00
  3.4227951e+00
 -4.4582245e-01
  1.9448372e-02
  2.4664009e+00
 -3.5911150e+00
  2.7332072e+00
 -1.1106168e+00
  2.4266527e+00
  5.6909245e-01
  8.5903609e-01
  2.2521670e+00
 -4.1046200e+00
  4.7994041e-01
 -1.4365873e-01
 -1.5356232e+00
  2.6237512e+00
  5.4683596e-01
  7.4264042e-02
 -1.9582444e+00
 -1.9324876e+00
 -4.5230122e+00
 -2.4565477e+00
 -2.0070274e+00
 -5.4264940e-02
 -6.2969953e-02
 -2.0615346e+00
  7.0697331e-01
  4.9398741e-01
  7.8162111e-02
 -1.8918900e+00
 -1.7767251e+00
  2.1193080e+00
  2.9561558e+00
  5.5648255e-01
  2.5093418e-01
  1.5406787e+00
  6.2633371e-01
  6.9127220e-01
  4.0000887e+00
 -3.2469106e+00
  1.7021650e+00
  1.1330482e+00
 -1.5917190e+00
  1.4196066e+00
  1.2005609e+00
 -3.8457274e+00
 -5.1139420e-01
  1.4413997e+00
  3.4259704e-01
  2.8550012e-02
 -7.0030284e-01
  3.2370684e+00
  3.3421120e-01
 -2.1516578e+00
 -9.9931723e-01
 -2.8670144e+00
  5.1636827e-01
  1.4610661e+00
  9.7012508e-01
  3.1054157e-01
 -2.5425165e+00
 -1.4913325e+00
  3.0084226e-01
  7.7362996e-01
 -8.1983678e-02
 -1.6499546e+00
 -2.4745385e-01
 -1.8706315e+00
 -2.0546870e-01
  6.2308645e-01
  2.4420452e+00
  9.6979976e-01
  2.1043427e+00
  2.8053540e-01
 -2.0835960e+00
  1.8430820e+00
 -2.2900758e+00
  1.6571687e+00
  8.7227708e-01
  1.4893625e+00
  6.8214530e-01
 -2.2629008e+00
  2.1317606e+00
 -2.2623427e+00
  9.5720279e-01
  4.5012379e-01
  1.1646632e+00
 -9.8109180e-01
 -5.2540803e-01
  2.2653184e+00
 -8.7776971e-01
  1.0117677e+00
 -2.0982635e+00
  3.7625900e-01
  4.6096760e-01
 -8.7360603e-01
 -3.1009028e+00
 -5.9617656e-01
 -3.6870736e-01
  7.2952604e-01
 -2.3550563e+00
  6.3668329e-01
  4.0527418e-01
  1.7986217e-01
 -1.0141126e-02
  4.0759549e-01
  1.0779932e+00
 -3.3422844e+00
  1.7209965e+00
 -6.9034481e-01
  4.8273772e-01
 -1.4811114e+00
 -1.2256666e-01
  1.9873133e+00
  3.4477267e-02
  3.9144745e+00
 -2.3213452e-01
  5.6640399e-01
  1.0005193e+00
  9.2156106e-01
 -5.3276455e-01
 -7.5225425e-01
 -1.8922489e+00
  1.7076657e+00
 -1.5016373e-01
  7.5804301e-02
 -4.1035968e-01
  9.1046268e-01
 -3.2798607e+00
  2.7716119e+00
  2.1519955e-01
 -6.5681195e-01
  6.8729043e-01
 -1.6050016e+00
  5.0854111e-01
  4.4349724e-01
  4.1762072e-01
  3.4772806e+00
 -2.8992948e-01
 -7.5329465e-01
  3.6621108e+00
 -1.2791287e+00
 -1.5666575e+00
 -7.4362719e-01
 -1.9857428e+00
 -1.6722678e+00
 -1.9966983e+00
 -1.7981536e+00
  3.1145923e+00
 -9.1401899e-01
 -1.5722277e+00
  4.1012019e-01
  1.5515524e-01
  1.4016830e+00
 -1.2053857e+00
  1.7853150e+00
 -8.1943911e-01
 -1.7359035e+00
 -3.3196418e+00
 -4.4864804e-01
  2.7644260e+00
 -4.9974018e-01
  9.2418188e-01
 -3.1193421e+00
 -2.5147619e+00
 -1.4406613e+00
 -1.5293239e-01
  2.0535564e+00
 -8.5603362e-01
  3.0404380e-01
 -4.1882855e-01
 -7.0083094e-01
 -1.4950585e+00
  3.4904283e-01
 -2.0664015e+00
  1.7974061e+00
 -2.8023694e+00
 -2.2182810e+00
  8.2001841e-01
  7.7946419e-01
  7.6164208e-02
 -1.5515752e-01
 -9.1113502e-01
 -4.3290138e+00
 -3.6264281e+00
  7.5446659e-01
  2.2820916e+00
  7.9064941e-01
 -4.5706768e+00
 -2.2177936e-01
  9.7215462e-01
 -1.3108289e+00
  2.4995947e+00
  2.2376642e+00
  1.2787459e+00
 -2.8440782e-01
  1.5569330e+00
  2.4413371e+00
 -2.5156391e-01
 -1.2501059e+00
 -1.0961280e+00
 -7.7189773e-01
 -2.8280780e+00
 -7.9545629e-01
 -1.9693283e+00
 -1.2979553e+00
  2.3596974e-02
  2.5847878e+00
 -8.3967680e-01
 -1.2120429e+00
 -1.3500132e-01
 -3.4071786e+00
  6.7408341e-01
  1.9829575e+00
 -7.2392571e-01
  1.2814466e+00
 -2.2522817e+00
 -1.2346010e+00
 -2.9467337e+00
 -3.6127772e+00
  3.9527124e-01
  2.5818067e+00
  8.7909503e-03
 -3.2482142e+00
 -1.7052845e+00
  4.3603408e-01
  1.3138924e+00
 -3.7646153e+00
  1.9892111e+00
 -1.3646754e+00
 -9.0941232e-01
  5.2425867e-01
 -2.9025769e+00
 -4.6117187e+00
 -1.6945965e+00
 -6.9194734e-01
 -8.1328201e-01
  1.6756353e+00
  1.5569915e-01
 -2.1639416e+00
  2.2885084e+00
  5.4716390e-01
 -1.9672166e+00
  1.5999914e+00
 -7.1612352e-01
  2.5414815e+00
 -3.6685469e+00
 -7.0721871e-01
  2.3392251e+00
  1.2564600e-01
 -7.1824706e-01
  1.7119048e+00
  5.3162348e-01
  1.2733752e+00
 -2.7118812e+00
 -4.1787779e-01
 -3.2482011e+00
  1.1410084e+00
 -5.8841858e+00
 -2.3351170e-01
 -1.0979226e+00
  2.9392576e+00
  1.7675198e+00
  9.4278038e-01
  1.1389526e+00
  2.9593639e+00
  2.3697579e+00
 -4.7792205e-01
 -2.3284307e+00
 -9.3368304e-01
  1.8881193e+00
  4.7549665e-01
  2.1706331e-01
 -1.1322735e-01
 -1.2788294e-01
  5.4329395e-01
  3.1648235e+00
  7.5680631e-01
 -5.7553148e-01
  3.7687221e+00
  2.4201009e+00
  7.8706628e-01
 -1.0706825e+00
 -2.0289965e+00
 -3.6287251e-01
  4.1778388e+00
 -7.8832144e-01
  3.0515387e+00
  3.9367976e+00
 -3.1459549e-01
  2.2140021e+00
  1.0532008e+00
  1.5088881e+00
  1.6281870e-01
 -3.1719139e+00
 -1.4147495e+00
 -2.0118904e+00
 -3.8843819e-01
 -8.6817145e-01
 -1.9251907e+00
  1.9502050e+00
  4.7418742e+00
  4.8494959e-01
  9.2837358e-01
 -9.6224588e-01
 -2.2972262e+00
 -4.4115734e+00
  4.9014637e-01
 -7.5710028e-01
  7.3667592e-01
  1.5532285e+00
  2.4118714e+00
 -1.5912061e+00
 -1.9562461e+00
  1.3805602e+00
  1.6903149e+00
  2.1035936e+00
 -2.0122465e-01
  1.6757656e+00
  1.9057581e+00
  3.6729082e-01
  2.0831892e+00
  3.6707635e+00
 -1.4094462e+00
  6.3375717e-01
  1.6460065e+00
 -9.1651225e-01
 -2.2592385e+00
 -2.5605562e-01
 -1.9183143e+00
 -1.3279071e+00
 -8.4338748e-01
  2.5228000e+00
  3.1735130e-02
  1.2099771e+00
  3.0261662e+00
 -1.6631380e+00
  5.7532465e-01
  2.3963971e+00
 -1.2264382e+00
 -3.9644701e+00
 -5.1388860e-01
 -6.6347152e-01
  5.4878485e-01
 -4.4553372e-01
  1.3989675e+00
 -2.4205160e+00
  7.8308180e-02
 -4.1747484e-01
 -3.0028031e+00
  1.0666529e+00
  4.2536440e-01
 -7.0154643e-01
 -5.6796247e-01
 -6.9905132e-01
  3.0099130e+00
 -1.7547928e+00
 -4.4325864e-01
  2.2800708e+00
 -3.1844273e+00
  1.7307527e-01
 -1.8432480e+00
 -6.1076772e-01
  3.3288279e+00
 -1.1253598e+00
 -1.4820216e+00
 -6.6365767e-01
  8.0433440e-01
  1.3556436e+00
  6.2546998e-02
 -2.4949746e+00
  2.1414487e+00
 -1.9323671e+00
  4.0732199e-01
 -2.1353414e+00
  2.2700911e+00
  3.3483665e+00
  1.5236285e+00
  3.8372299e-01
  2.4891324e+00
 -8.7989181e-01
 -1.0404857e+00
 -6.8798941e-01
  4.0856114e-01
  1.2491692e+00
 -1.5901062e+00
 -6.8847221e-01
  1.0523182e+00
  1.5089105e+00
  1.6779022e+00
  1.6722273e+00
  4.3931007e+00
  4.5145540e+00
  1.7208866e+00
  1.2405918e+00
  1.6801749e+00
 -9.2271268e-01
 -1.2719666e+00
  3.5765634e+00
  9.7790730e-01
  1.2871865e+00
  2.2580473e-02
 -3.3252186e-01
 -9.9701506e-01
 -2.8670828e+00
  9.4562322e-01
  1.2055974e+00
 -2.5936285e-01
  6.8395901e-01
 -1.1957058e-01
 -1.5755099e+00
  3.8341680e+00
 -1.0462519e+00
 -1.9808184e-01
  7.4102175e-01
 -1.7163494e-01
  7.8647453e-01
  2.0647428e+00
  6.5692365e-01
  5.1512182e-01
  2.8360159e+00
 -1.0673310e+00
  1.4274992e+00
 -6.4879380e-02
  2.8694279e+00
  3.8551962e-01
  2.8960302e+00
 -1.4077142e+00
 -1.7703067e+00
 -6.1798728e-01
  5.1147765e-01
 -1.5927409e-01
 -8.7773156e-01
  2.2066016e+00
  1.1672115e+00
 -1.6284291e+00
  4.0472418e-01
 -2.3573918e+00
  3.2528350e+00
  2.6308432e+00
  2.4996767e+00
  1.2395247e+00
 -3.0751057e+00
 -1.0061675e+00
  1.9291088e-01
 -1.1415250e+00
 -3.1013687e+00
  8.6002922e-01
  2.3273485e+00
  2.0145245e+00
 -3.9771249e+00
  3.3136278e-02
  8.6186773e-01
  9.9907488e-02
 -7.1525568e-01
 -3.5561986e+00
  1.6852531e+00
 -1.1236032e+00
  1.8472028e+00
  1.1067210e+00
 -1.0180002e+00
 -6.9961280e-01
 -9.5211077e-01
 -1.1196169e-01
 -1.2042348e+00
  1.6119194e+00
 -9.0775335e-01
  1.7936091e+00
 -6.2036246e-01
 -5.9579337e-01
  1.6400809e+00
 -1.7746146e+00
  2.2762122e-02
 -2.0954671e+00
  2.7816913e+00
  5.5475771e-01
  2.3432338e+00
  1.6856601e+00
  1.5196801e+00
 -1.0080007e+00
  1.0056562e+00
  1.9941537e-01
  7.0815191e-02
  1.4217794e+00
  2.4965177e+00
  1.4621791e+00
 -1.3535930e+00
  8.9569166e-02
  1.3039932e+00
  4.3011293e+00
 -9.7194743e-01
 -9.2291164e-01
 -1.8279963e+00
  5.1853223e+00
  3.7498806e-02
 -9.6831465e-01
  2.4070503e-01
  1.9327888e+00
 -1.3098930e+00
 -2.7963930e-01
  1.7130837e+00
 -2.3761640e+00
 -7.2393095e-01
  6.6287506e-01
  2.9371173e+00
  2.3523924e+00
 -2.6634219e+00
 -1.7869555e+00
 -9.1269249e-01
 -9.0531307e-01
  3.2362118e+00
  6.2239178e-02
  2.6938272e-01
  1.1297642e+00
 -6.8462741e-01
 -3.9661554e-01
  1.4297882e+00
 -3.6979002e-01
  2.3834171e+00
  2.6280854e+00
 -4.2439452e-01
 -3.9175203e-01
  3.2582464e+00
 -4.2251489e-01
 -1.5979577e+00
  1.7348611e-01
  5.0068605e-01
 -5.2905047e-01
 -3.5534136e-02
 -9.7570044e-01
 -1.7762125e+00
 -1.1529059e+00
  9.4250989e-01
  2.3023000e+00
 -3.6828418e+00
 -7.7354497e-01
 -8.7387944e-03
  2.4602892e+00
  1.2063407e+00
 -2.1404953e+00
 -1.3220562e+00
 -3.5177958e-01
  2.5235233e-01
  9.3565023e-01
  1.2251592e+00
  1.5528893e+00
 -1.3011059e+00
  5.8648926e-01
  7.7082509e-01
 -7.5318223e-01
  1.3740336e+00
  9.7912329e-01
  3.4105186e+00
 -4.4059369e-01
 -9.3719023e-01
 -4.8396224e-01
  2.1382666e+00
  6.3034707e-01
  1.6385826e-01
 -1.2462867e+00
  8.8703853e-01
  3.4753213e+00
  3.5078585e+00
  1.6406096e+00
 -1.0736417e+00
 -1.4602552e-01
 -2.2334750e+00
 -9.5434546e-01
 -7.5382382e-01
 -1.8649575e+00
  8.7265782e-02
  1.5066887e+00
 -7.6970971e-01
  8.8374549e-01
 -3.2554812e+00
 -3.4545824e-02
 -9.1630739e-01
  8.2835811e-01
  2.8175910e+00
  5.7277924e-01
  2.1822770e-01
 -1.7509423e+00
  6.2516332e-02
 -1.4547913e+00
 -1.9166114e+00
 -2.7254722e+00
  3.1863832e-01
 -2.1310606e+00
 -1.1762108e-01
  3.3662286e-01
  1.8119290e+00
 -5.8883971e-01
  1.2198081e+00
  2.3417975e-01
  6.3085854e-01
  8.7823081e-01
 -1.9688697e-01
  8.4475791e-01
  2.4084988e+00
 -1.6272753e-01
 -9.7822309e-01
 -2.6490891e+00
  2.7315671e+00
 -4.2240858e+00
  2.5603397e+00
 -1.9827172e+00
  2.2012298e+00
  2.6096485e+00
 -1.1556096e+00
  1.9996891e+00
  4.7525015e-02
 -2.7483640e+00
 -8.2497782e-01
  2.1742947e+00
 -9.8953629e-01
  2.0055993e-01
 -2.3136036e+00
  9.1754931e-01
 -1.3176914e+00
 -7.3061550e-01
 -2.0216479e+00
  6.6352797e-01
 -2.0811281e+00
  2.6306295e-01
  1.1612149e+00
 -3.7529688e+00
 -4.8803216e-01
 -8.4195748e-02
 -2.3386432e-01
  2.1685307e-01
  2.4050078e+00
 -1.3468893e-01
  1.1406994e+00
 -2.2017970e+00
 -2.5643797e+00
 -6.3603902e-01
  1.2700763e+00
  2.5358605e+00
  7.1580350e-01
  4.8667604e-01
  1.9821894e-01
  2.1257603e+00
 -1.1566423e+00
  1.2549642e+00
  1.1707872e+00
 -1.5756906e+00
  1.7544349e+00
 -2.4398918e+00
 -1.3044593e+00
 -9.4700754e-01
 -1.1463754e+00
  1.0620263e+00
 -7.9447705e-01
 -9.0565389e-01
 -5.5309850e-01
 -1.3550841e+00
  2.6675600e-01
  3.6696715e+00
  3.1066625e+00
  1.2598773e+00
  1.1414239e+00
  2.9561214e+00
 -1.1407634e+00
 -3.3191392e+00
 -1.1802130e+00
  2.0539582e+00
  3.4070082e+00
 -4.8665899e-01
 -4.0719098e-01
 -9.6301520e-01
 -3.7582937e-01
  9.2349112e-01
 -8.7886143e-01
  2.3894091e+00
  1.2458696e-02
 -5.9933004e+00
 -1.4034311e+00
 -1.4048816e+00
 -1.3700452e+00
 -1.3651395e+00
  1.7106354e+00
  2.8396142e+00
  3.3062520e+00
 -1.7482628e+00
  2.2407293e+00
  4.0554377e-01
  7.9323733e-01
  8.0333656e-01
  8.2056791e-01
  2.1651444e+00
  1.8551521e+00
 -7.2548306e-01
 -8.9771628e-01
  5.9079540e-01
 -4.3547761e-01
 -2.2822085e-01
 -8.7087160e-01
  1.7568427e+00
 -4.2606613e-01
 -1.9612199e+00
  1.7255259e+00
  1.0252806e+00
 -2.2706761e+00
  5.3930819e-01
 -1.9546707e+00
  6.3174194e-01
 -1.9242955e-02
 -7.5441653e-01
  4.1532099e-01
 -1.0135710e+00
  2.4655125e-01
 -8.7577307e-01
  1.6613795e-01
  1.2300206e+00
 -1.2894031e+00
 -2.5048876e+00
 -6.6202575e-01
  3.3965123e-01
  2.5711548e+00
  1.5289477e+00
 -7.9450959e-01
  7.7026255e-02
 -1.7655631e+00
 -4.3063688e-01
  8.2402766e-01
  4.1033778e+00
  2.2926486e+00
 -5.1111388e-01
  2.1505742e+00
 -1.4517469e+00
  5.9949869e-01
 -1.1203678e+00
  2.8464785e+00
 -2.1429543e+00
 -3.7858653e-01
  1.4543922e+00
 -2.6475596e+00
 -3.9786595e-01
  2.6854076e+00
 -2.2309525e+00
 -3.5541694e+00
  2.1887841e+00
  7.5936687e-01
 -1.3961765e+00
 -2.8031132e+00
 -2.2792335e+00
  8.9508271e-01
 -9.2697930e-01
  3.3811015e-01
  2.0710763e-01
 -7.3980188e-01
  5.3097802e-01
  5.9955835e-01
  2.0028572e+00
  3.2780316e+00
  5.4519218e-03
 -2.1601591e+00
  3.4250189e-02
  3.4054632e+00
 -7.5327152e-01
 -9.2699105e-01
 -1.2021489e+00
 -2.6446586e+00
 -3.2802773e-01
 -1.0109979e-02
  3.0637207e+00
  7.8111982e-01
  7.6280558e-01
 -1.1619717e+00
 -1.0447001e+00
  3.2206197e+00
 -1.3980740e+00
  8.7841922e-01
  1.3325791e+00
 -4.2344961e-01
  1.0735813e+00
 -3.9235863e-01
  3.5809368e-02
 -1.7865039e+00
 -1.8882968e+00
 -4.8379284e-01
 -2.0652287e-01
 -5.1989359e-01
 -1.7296326e+00
  5.4548973e-01
 -3.2570887e+00
  2.7561901e+00
  1.2179850e+00
  1.8247494e+00
 -2.5472763e-01
  4.1885290e-01
 -4.2778337e-01
  5.8839285e-01
 -3.3617243e-02
  2.0907934e+00
  2.0944395e+00
  3.4096032e-01
  1.8634839e+00
  6.1279428e-01
  2.3047812e+00
 -3.3493024e-01
 -8.3987272e-01
 -1.9478012e+00
  1.1297916e+00
  8.6508727e-01
  1.3335998e+00
  3.5146079e+00
  8.0952120e-01
  1.0342385e+00
  3.0172818e+00
 -1.3704188e-02
 -2.6965382e+00
 -3.9004293e-01
  4.0355915e-01
  2.9614171e-01
  3.0455449e-01
 -3.0296543e+00
 -5.7151097e-01
 -1.3742402e+00
  2.5360007e+00
  1.5793543e+00
  9.5922929e-01
  4.9730682e+00
  6.6018730e-01
 -6.7917079e-01
 -1.8929894e+00
  1.3419197e+00
  7.9612297e-01
  5.7968277e-01
  4.0939336e+00
 -2.4315661e-01
 -1.4191441e-01
  1.2090427e+00
  1.5790330e+00
  2.9398091e+00
  1.9720249e+00
  1.1996933e+00
 -6.8720460e-01
 -1.7264847e+00
  1.6768053e+00
 -2.9012316e-01
  1.3004628e+00
  3.6082122e+00
 -1.0649785e+00
  1.8886036e+00
  9.3185574e-02
 -2.5432866e+00
  2.6543522e+00
 -2.4152396e+00
  8.4708589e-01
  1.2042748e+00
 -8.4254287e-02
  4.7230381e-01
 -1.8458912e-01
 -9.5372915e-01
  3.3603492e+00
  2.4712753e+00
  2.9962795e+00
  2.8729160e+00
 -4.8406675e-01
  9.8906291e-01
  9.2678106e-01
  1.3450839e-01
 -8.0381024e-01
 -1.3775965e+00
  4.3456264e+00
 -8.8703412e-01
 -4.5413566e-01
  9.8346305e-01
  1.8343524e+00
  3.9092703e+00
 -1.9837559e+00
 -3.7302291e+00
 -1.3289583e+00
  1.2343268e+00
 -2.9506788e+00
  1.9652290e+00
  1.0319468e-01
  2.6150993e-01
 -1.4064703e+00
  1.7707860e+00
 -5.4984683e-01
 -3.0544105e-01
 -8.4192771e-01
 -9.8768389e-01
  9.7506382e-03
  7.1207531e-02
  4.1961770e+00
 -1.9096218e+00
 -2.8323086e-02
 -7.4228920e-02
 -1.3701413e+00
 -1.0254710e-01
 -4.6683083e+00
 -3.5407174e-01
 -1.1722107e+00
 -4.6558846e-02
 -2.1219041e+00
 -2.4957347e+00
  1.5769701e-01
  2.0679700e+00
 -6.0708380e-01
 -1.8325417e+00
  2.0442600e+00
 -1.3169317e+00
  2.1008761e+00
 -2.1032696e+00
 -8.4238523e-01
  1.1567062e+00
 -2.4363670e+00
 -2.7509875e+00
 -2.0373037e+00
  7.7524132e-01
  2.1657870e+00
  9.8390657e-01
 -1.6694585e+00
  9.1296673e-01
 -3.1032729e-01
 -1.9649820e+00
  3.5455127e+00
 -2.4140964e+00
  9.4381499e-01
  1.3491750e-01
  1.6830733e+00
 -7.8957283e-01
  3.9055499e-01
  3.1805935e+00
  3.1336174e+00
 -1.2038703e-01
 -1.5869966e+00
 -3.0103185e+00
  3.3564343e+00
  8.8249761e-01
 -1.4643430e+00
  3.1277008e+00
 -6.8046498e-01
  4.6541452e-01
 -1.2128270e+00
  1.0384585e+00
 -7.0618331e-01
 -2.5823202e+00
  3.3929937e+00
 -2.3427778e-01
  2.6806521e-01
  3.3738539e-01
  1.3768955e+00
  5.6266791e-01
 -1.8768313e+00
 -9.9014664e-01
  1.2501199e+00
 -7.4112087e-01
 -3.7955918e+00
  2.7869592e+00
 -4.6383959e-01
  5.0784975e-01
 -2.6746445e+00
  1.4033655e+00
 -4.2104831e+00
  4.8021740e-01
  4.5954478e-01
  1.3067194e+00
 -2.6968739e+00
 -1.1084651e+00
 -4.2574197e-01
 -1.4935827e+00
 -2.7092463e-01
  1.5183045e+00
  5.4781842e-01
  8.4130615e-01
  3.9805934e-01
  2.5364375e-01
  2.3176234e+00
  6.9772596e+00
  5.8274254e-02
 -1.4067070e+00
  8.9260799e-01
  5.2712822e-01
  1.1046840e+00
  1.0527290e+00
  1.2476374e+00
  1.3248591e-03
 -1.3261151e+00
 -1.6128100e+00
 -1.9389497e+00
  1.2833779e-01
 -4.8735482e-01
 -1.1845446e-01
 -6.1918849e-01
 -2.6305037e+00
  4.9596806e+00
  3.1272023e+00
 -3.8807711e-01
 -9.1164947e-01
  1.6527433e+00
 -3.2621114e+00
 -2.5286508e-01
 -7.5520200e-01
 -1.3499768e+00
 -2.2596157e+00
 -1.8834130e+00
 -4.2538077e-01
  3.1230178e+00
  3.5524445e+00
 -1.4013647e+00
 -1.2206708e+00
  2.7736042e+00
  1.1859840e+00
 -2.9435465e+00
  1.1372473e+00
  6.0023516e-01
 -2.2099605e+00
  1.4515319e+00
  1.1515955e+00
  1.1171017e+00
 -6.4381546e-01
  1.7635238e-01
 -5.9450132e-01
 -9.5657647e-01
 -1.9451602e+00
  2.7924609e-01
 -1.0780932e-01
  9.5729664e-02
  1.9384198e-01
 -3.3933010e+00
  4.9123028e-03
  2.2844787e+00
 -2.1444447e+00
 -9.7784966e-01
 -6.5847951e-01
 -4.6052445e-02
  2.6444578e+00
  1.7540569e+00
 -2.3589764e+00
  2.2641995e+00
  6.3090163e-01
  2.4445100e+00
 -1.9706756e+00
 -9.2044514e-01
  1.2919192e+00
  3.9481506e-01
  8.3853491e-03
 -1.9130123e+00
 -2.0652907e+00
  1.3925006e+00
  5.5024366e+00
 -2.6809850e+00
 -4.1562802e-01
 -4.8217037e-01
 -7.0401108e-01
  1.8532611e+00
  2.4887688e-01
 -9.9339962e-01
 -1.0649449e+00
  2.0976613e+00
 -6.8860960e-01
 -2.1680269e+00
 -2.2478707e+00
  3.5172901e-01
 -1.4912970e+00
  2.4553807e-01
  1.7588915e+00
  4.8791409e-01
  2.7253730e+00
 -2.7205365e+00
  3.5703039e-01
 -5.2426267e-01
  8.0351382e-01
 -3.0117649e-01
  5.3298271e-01
  3.3326426e+00
 -4.0639192e-02
 -9.0111740e-02
 -2.0027590e-01
 -1.9294828e+00
  2.6250668e+00
 -5.4907048e-01
 -5.4581523e-01
 -4.6701930e-02
  4.3069597e-02
 -1.1593784e+00
 -4.4205153e-01
  1.1220311e+00
 -2.9368987e+00
  4.5367911e-01
  2.4484439e+00
  3.2262176e-01
  1.2117381e+00
 -2.1203499e+00
  3.7167404e+00
  3.6274726e+00
  2.1071808e+00
 -1.1334307e-01
  1.6408181e+00
 -2.3740318e+00
  1.1273482e+00
  1.2230414e+00
 -3.4935617e-01
  9.3297535e-01
  1.8778667e+00
  1.0243254e+00
 -1.5239917e+00
 -1.0197450e+00
  6.7303824e-01
  1.3114502e+00
  4.2640409e-01
  2.6027744e+00
  5.6819534e-01
 -1.0606942e+00
 -3.2716649e+00
  2.1433969e+00
  3.5398763e-01
 -1.2649777e+00
  3.7902606e-01
 -2.2488143e+00
 -9.5666707e-01
 -3.8860530e-01
  1.3345999e+00
  1.3103642e-03
  2.9672518e+00
 -1.3220136e+00
 -1.2661022e+00
  1.4919408e-01
  2.4969116e-02
 -2.1489391e+00
  2.6567180e+00
 -9.8838344e-02
 -2.2610981e+00
  1.2046958e+00
 -2.1182939e-01
  2.2969518e+00
  1.0354956e+00
  9.4627869e-01
 -1.3966473e+00
  5.1848513e-01
  9.3485326e-01
  2.6226404e+00
 -2.4545474e+00
 -1.7016858e+00
  1.7245440e+00
 -1.6968499e+00
 -6.2393856e-01
  1.3285511e+00
  1.8029320e+00
  1.1891248e-01
  4.7558042e-01
  8.6472446e-01
 -7.1697557e-01
 -2.3117893e+00
  3.8018835e-01
  7.4382496e-01
  2.4499495e+00
 -1.6275421e+00
  1.3495976e+00
  1.3417146e+00
  3.1235750e+00
  1.7411195e+00
 -3.0388650e-01
 -1.4160180e-01
 -1.1351317e+00
  1.1285719e+00
 -1.1752349e+00
  6.6069078e-01
  3.4389441e+00
 -1.8347685e+00
 -6.1932415e-01
 -5.8627254e-01
  5.7585621e-01
 -3.3253350e+00
  9.1567659e-01
  1.8131280e+00
 -2.3390891e-01
  3.1266305e+00
  1.5558113e+00
 -3.0708516e-01
 -9.4132525e-01
 -1.7183718e-01
  3.6149962e+00
 -3.7929876e+00
  2.0070703e+00
  3.2829187e+00
  1.2978276e+00
 -2.3534987e+00
 -7.9048342e-01
  2.0558684e+00
  1.4735706e+00
 -1.0275944e+00
  1.9836299e+00
 -7.3025578e-01
  9.4665456e-01
 -4.5211034e+00
  3.1314006e+00
  3.1779125e-01
  1.7876514e+00
 -2.6989779e+00
  6.1014974e-01
 -2.2834141e+00
 -3.0633518e-01
 -1.1087397e+00
  2.1906972e+00
 -5.7552314e-01
  8.9979835e-02
  2.3463832e-01
 -1.7463558e+00
  1.4889401e+00
  1.0314102e+00
 -2.8726015e+00
 -4.3922782e-01
 -3.4263272e+00
  6.7232198e-01
 -2.7766857e-02
  2.5099906e-01
  1.6722703e+00
  1.5358080e+00
  1.1306230e+00
 -1.1886886e+00
  2.6598470e+00
  9.3611664e-01
  2.0341954e+00
 -9.7481877e-02
  2.7945316e-01
 -3.5421755e+00
 -3.3502710e+00
  4.5651217e+00
 -2.7900657e-01
  1.5283886e+00
 -1.4654094e+00
 -6.8743557e-01
  7.5544769e-01
  1.2714563e-01
 -1.4714442e+00
  1.0873209e-01
  6.4497751e-01
 -2.0862846e+00
 -3.2098499e-01
  1.5352472e+00
 -2.7616854e+00
 -1.9561740e+00
 -1.3051257e+00
 -1.6576052e+00
  6.2955362e-01
